{"learner":{"attributes":{},"feature_names":[],"feature_types":[],"gradient_booster":{"model":{"gbtree_model_param":{"num_parallel_tree":"1","num_trees":"504"},"iteration_indptr":[0,1,2,3,4,5,6,7,8,9,10,11,12,13,14,15,16,17,18,19,20,21,22,23,24,25,26,27,28,29,30,31,32,33,34,35,36,37,38,39,40,41,42,43,44,45,46,47,48,49,50,51,52,53,54,55,56,57,58,59,60,61,62,63,64,65,66,67,68,69,70,71,72,73,74,75,76,77,78,79,80,81,82,83,84,85,86,87,88,89,90,91,92,93,94,95,96,97,98,99,100,101,102,103,104,105,106,107,108,109,110,111,112,113,114,115,116,117,118,119,120,121,122,123,124,125,126,127,128,129,130,131,132,133,134,135,136,137,138,139,140,141,142,143,144,145,146,147,148,149,150,151,152,153,154,155,156,157,158,159,160,161,162,163,164,165,166,167,168,169,170,171,172,173,174,175,176,177,178,179,180,181,182,183,184,185,186,187,188,189,190,191,192,193,194,195,196,197,198,199,200,201,202,203,204,205,206,207,208,209,210,211,212,213,214,215,216,217,218,219,220,221,222,223,224,225,226,227,228,229,230,231,232,233,234,235,236,237,238,239,240,241,242,243,244,245,246,247,248,249,250,251,252,253,254,255,256,257,258,259,260,261,262,263,264,265,266,267,268,269,270,271,272,273,274,275,276,277,278,279,280,281,282,283,284,285,286,287,288,289,290,291,292,293,294,295,296,297,298,299,300,301,302,303,304,305,306,307,308,309,310,311,312,313,314,315,316,317,318,319,320,321,322,323,324,325,326,327,328,329,330,331,332,333,334,335,336,337,338,339,340,341,342,343,344,345,346,347,348,349,350,351,352,353,354,355,356,357,358,359,360,361,362,363,364,365,366,367,368,369,370,371,372,373,374,375,376,377,378,379,380,381,382,383,384,385,386,387,388,389,390,391,392,393,394,395,396,397,398,399,400,401,402,403,404,405,406,407,408,409,410,411,412,413,414,415,416,417,418,419,420,421,422,423,424,425,426,427,428,429,430,431,432,433,434,435,436,437,438,439,440,441,442,443,444,445,446,447,448,449,450,451,452,453,454,455,456,457,458,459,460,461,462,463,464,465,466,467,468,469,470,471,472,473,474,475,476,477,478,479,480,481,482,483,484,485,486,487,488,489,490,491,492,493,494,495,496,497,498,499,500,501,502,503,504],"tree_info":[0,0,0,0,0,0,0,0,0,0,0,0,0,0,0,0,0,0,0,0,0,0,0,0,0,0,0,0,0,0,0,0,0,0,0,0,0,0,0,0,0,0,0,0,0,0,0,0,0,0,0,0,0,0,0,0,0,0,0,0,0,0,0,0,0,0,0,0,0,0,0,0,0,0,0,0,0,0,0,0,0,0,0,0,0,0,0,0,0,0,0,0,0,0,0,0,0,0,0,0,0,0,0,0,0,0,0,0,0,0,0,0,0,0,0,0,0,0,0,0,0,0,0,0,0,0,0,0,0,0,0,0,0,0,0,0,0,0,0,0,0,0,0,0,0,0,0,0,0,0,0,0,0,0,0,0,0,0,0,0,0,0,0,0,0,0,0,0,0,0,0,0,0,0,0,0,0,0,0,0,0,0,0,0,0,0,0,0,0,0,0,0,0,0,0,0,0,0,0,0,0,0,0,0,0,0,0,0,0,0,0,0,0,0,0,0,0,0,0,0,0,0,0,0,0,0,0,0,0,0,0,0,0,0,0,0,0,0,0,0,0,0,0,0,0,0,0,0,0,0,0,0,0,0,0,0,0,0,0,0,0,0,0,0,0,0,0,0,0,0,0,0,0,0,0,0,0,0,0,0,0,0,0,0,0,0,0,0,0,0,0,0,0,0,0,0,0,0,0,0,0,0,0,0,0,0,0,0,0,0,0,0,0,0,0,0,0,0,0,0,0,0,0,0,0,0,0,0,0,0,0,0,0,0,0,0,0,0,0,0,0,0,0,0,0,0,0,0,0,0,0,0,0,0,0,0,0,0,0,0,0,0,0,0,0,0,0,0,0,0,0,0,0,0,0,0,0,0,0,0,0,0,0,0,0,0,0,0,0,0,0,0,0,0,0,0,0,0,0,0,0,0,0,0,0,0,0,0,0,0,0,0,0,0,0,0,0,0,0,0,0,0,0,0,0,0,0,0,0,0,0,0,0,0,0,0,0,0,0,0,0,0,0,0,0,0,0,0,0,0,0,0,0,0,0,0,0,0,0,0,0,0,0,0,0,0,0,0,0,0,0,0,0,0,0,0,0,0,0,0,0,0,0,0,0,0,0,0,0,0,0,0,0,0,0,0,0,0,0,0,0,0,0,0],"trees":[{"base_weights":[-2.0176896E-3,-1.8805584E0,1.9072173E0,-1.9825244E0,-6.6817075E-1,6.7213404E-1,7.189149E-2,-7.250343E-2,-1.637082E0,-1.7756687E0,1.5092164E0,-1.531417E0,1.7745869E0,-7.119578E-2,1.2604405E0,-1.9217292E0,-3.8983786E-1,5.518263E-1,1.8307768E0,-6.91532E-2,-4.590644E-1,5.9700483E-1,6.886073E-2,1.0981437E-2,5.3378448E-2,-7.088068E-2,-9.571358E-1,-5.638186E-2,8.4330654E-1,-4.9478434E-2,5.3319283E-2,2.3347981E-2,6.8577565E-2,-5.908496E-2,3.9365195E-2,-4.2766385E-2,5.7286955E-2,-6.853441E-3,-4.716987E-2,5.8281324E-3,4.5232765E-2],"categories":[],"categories_nodes":[],"categories_segments":[],"categories_sizes":[],"default_left":[0,0,0,0,0,0,0,0,0,0,0,0,0,0,0,0,0,0,0,0,0,0,0,0,0,0,0,0,0,0,0,0,0,0,0,0,0,0,0,0,0],"id":0,"left_children":[1,3,5,7,9,11,-1,-1,13,15,17,19,21,-1,23,25,27,29,31,-1,33,35,-1,-1,-1,-1,37,-1,39,-1,-1,-1,-1,-1,-1,-1,-1,-1,-1,-1,-1],"loss_changes":[2.9807676E4,5.137461E2,4.066211E2,1.9542969E1,8.033604E2,6.339536E2,0E0,0E0,2.491272E2,4.219098E1,3.159201E1,3.3008377E1,2.2855042E1,0E0,4.31715E0,1.4677734E0,3.9963158E1,6.4424446E1,2.640686E0,0E0,5.4683746E1,4.3920372E1,0E0,0E0,0E0,0E0,2.8657532E0,0E0,3.2993555E0,0E0,0E0,0E0,0E0,0E0,0E0,0E0,0E0,0E0,0E0,0E0,0E0],"parents":[2147483647,0,0,1,1,2,2,3,3,4,4,5,5,8,8,9,9,10,10,11,11,12,12,14,14,15,15,16,16,17,17,18,18,20,20,21,21,26,26,28,28],"right_children":[2,4,6,8,10,12,-1,-1,14,16,18,20,22,-1,24,26,28,30,32,-1,34,36,-1,-1,-1,-1,38,-1,40,-1,-1,-1,-1,-1,-1,-1,-1,-1,-1,-1,-1],"split_conditions":[3.8261524E-1,3.150222E-1,4.2931163E-1,2.567603E-1,6.230054E-1,-5.3076837E-2,7.189149E-2,-7.250343E-2,1.330405E0,4.8798177E-1,8.4388614E-1,-2.894057E-1,1.1160329E-1,-7.119578E-2,-6.5425205E-1,3.9609066E-1,3.5505497E-1,3.433616E-1,3.205379E-1,-6.91532E-2,4.122843E-1,4.0690202E-1,6.886073E-2,1.0981437E-2,5.3378448E-2,-7.088068E-2,-2.9825664E-1,-5.638186E-2,3.6547074E-1,-4.9478434E-2,5.3319283E-2,2.3347981E-2,6.8577565E-2,-5.908496E-2,3.9365195E-2,-4.2766385E-2,5.7286955E-2,-6.853441E-3,-4.716987E-2,5.8281324E-3,4.5232765E-2],"split_indices":[17,17,17,17,19,19,0,0,19,19,19,19,19,0,2,19,17,17,17,0,17,17,0,0,0,0,2,0,17,0,0,0,0,0,0,0,0,0,0,0,0],"split_type":[0,0,0,0,0,0,0,0,0,0,0,0,0,0,0,0,0,0,0,0,0,0,0,0,0,0,0,0,0,0,0,0,0,0,0,0,0,0,0,0,0],"sum_hessian":[8.304675E3,4.1860093E3,4.1186655E3,3.8594392E3,3.2657025E2,2.5436366E2,3.8643015E3,3.611299E3,2.4814008E2,2.1684796E2,1.097223E2,8.441864E1,1.6994502E2,2.235548E2,2.4585283E1,1.9508308E2,2.1764883E1,2.9713144E1,8.0009155E1,6.0498318E1,2.3920322E1,1.8569965E1,1.5137506E2,5.8993306E0,1.8685953E1,1.8455588E2,1.05272045E1,1.07497015E1,1.1015181E1,9.155245E0,2.05579E1,5.9603276E0,7.404883E1,1.3499625E1,1.0420696E1,6.4053216E0,1.2164643E1,4.7773643E0,5.7498403E0,5.7438354E0,5.271345E0],"tree_param":{"num_deleted":"0","num_feature":"32","num_nodes":"41","size_leaf_vector":"1"}},{"base_weights":[4.378331E-3,-9.782318E-1,6.656523E-1,-1.1484182E0,9.18022E-1,-1.9200549E-1,1.260875E0,-1.268238E0,5.2769107E-1,1.0871695E0,-1.0757009E0,-6.314522E-1,1.0837426E0,3.567737E-2,1.4429206E0,-8.6738473E-1,-1.5908821E0,6.461272E-2,-3.7835836E-1,-2.700659E-1,1.2731814E0,-5.8090992E-2,1.7837843E-2,1.5993665E0,-9.7619367E-1,6.857437E-1,1.5542339E0,-5.1345855E-1,1.3568965E0,7.718846E-1,1.6353186E0,-6.97816E-2,1.5323401E-2,-1.7809463E0,-9.3038946E-1,-1.3405122E0,1.3455563E0,-7.3228467E-1,3.9936543E-2,3.3638427E-1,1.5883968E0,1.6990322E0,-2.0780263E-2,-1.2901572E0,3.8263994E-1,-1.1444936E-1,9.660427E-1,1.1891285E0,1.730733E0,-1.4500498E0,5.5657005E-1,1.499674E0,-1.727153E-2,2.9564762E-2,1.427436E0,1.671464E0,-6.641893E-1,6.603955E-2,-3.662609E-2,-6.713951E-2,-4.5553654E-2,-5.8655787E-2,-3.7931814E-4,-5.7378944E-2,-7.193341E-3,2.0577993E-2,6.0159925E-2,-3.9140493E-2,1.5339651E-2,3.8147308E-2,-1.0592167E-2,2.4676878E-2,5.8750052E-2,6.505678E-2,3.7088674E-2,-5.7908192E-2,-1.6283093E-2,-3.256415E-2,3.5496876E-2,-1.9448843E-2,3.745815E-2,1.5450924E-2,5.1052786E-2,4.8938442E-2,9.386315E-3,2.000494E-2,6.396361E-2,3.1607796E-2,-5.6903075E-2,-2.0847294E-2,4.438801E-2,2.4240762E-3,6.250172E-2,-2.1476792E-2,5.2065045E-2,2.7986856E-2,5.8422856E-2,5.0272476E-2,6.452308E-2,2.2815702E-2,-4.4554565E-2],"categories":[],"categories_nodes":[],"categories_segments":[],"categories_sizes":[],"default_left":[0,0,0,0,0,0,0,0,0,0,0,0,0,0,0,0,0,0,0,0,0,0,0,0,0,0,0,0,0,0,0,0,0,0,0,0,0,0,0,0,0,0,0,0,0,0,0,0,0,0,0,0,0,0,0,0,0,0,0,0,0,0,0,0,0,0,0,0,0,0,0,0,0,0,0,0,0,0,0,0,0,0,0,0,0,0,0,0,0,0,0,0,0,0,0,0,0,0,0,0,0],"id":1,"left_children":[1,3,5,7,9,11,13,15,17,19,21,23,25,27,29,31,33,-1,35,37,39,-1,-1,41,43,45,47,49,51,53,55,-1,57,59,61,63,65,67,-1,69,71,73,-1,75,77,79,81,83,85,87,89,91,-1,93,95,97,99,-1,-1,-1,-1,-1,-1,-1,-1,-1,-1,-1,-1,-1,-1,-1,-1,-1,-1,-1,-1,-1,-1,-1,-1,-1,-1,-1,-1,-1,-1,-1,-1,-1,-1,-1,-1,-1,-1,-1,-1,-1,-1,-1,-1],"loss_changes":[5.402325E3,1.0826028E3,2.5377542E3,6.1872046E2,9.711305E1,1.1450715E3,6.542627E2,3.6643506E2,2.3827986E2,6.596466E1,2.181494E1,1.172544E3,9.470526E1,2.798688E2,3.2586328E2,1.2050525E3,1.9374585E2,0E0,2.0958095E2,2.3831417E1,6.525195E1,0E0,0E0,4.7329407E1,5.634165E2,6.520032E1,8.892578E0,2.7574374E2,3.1887787E1,2.7972885E2,1.6823047E2,0E0,1.3181464E3,4.1052734E1,2.2932465E2,2.1628708E1,8.312218E0,1.2349656E1,0E0,2.854103E1,2.0719604E0,7.45697E0,0E0,2.7747876E2,1.9455017E2,3.9616196E1,4.9620422E1,1.2226822E1,3.8023987E0,4.622586E1,1.0063394E2,3.429042E1,0E0,2.4255338E2,3.3632202E1,5.4191895E1,2.6618889E1,0E0,0E0,0E0,0E0,0E0,0E0,0E0,0E0,0E0,0E0,0E0,0E0,0E0,0E0,0E0,0E0,0E0,0E0,0E0,0E0,0E0,0E0,0E0,0E0,0E0,0E0,0E0,0E0,0E0,0E0,0E0,0E0,0E0,0E0,0E0,0E0,0E0,0E0,0E0,0E0,0E0,0E0,0E0,0E0],"parents":[2147483647,0,0,1,1,2,2,3,3,4,4,5,5,6,6,7,7,8,8,9,9,10,10,11,11,12,12,13,13,14,14,15,15,16,16,18,18,19,19,20,20,23,23,24,24,25,25,26,26,27,27,28,28,29,29,30,30,32,32,33,33,34,34,35,35,36,36,37,37,39,39,40,40,41,41,43,43,44,44,45,45,46,46,47,47,48,48,49,49,50,50,51,51,53,53,54,54,55,55,56,56],"right_children":[2,4,6,8,10,12,14,16,18,20,22,24,26,28,30,32,34,-1,36,38,40,-1,-1,42,44,46,48,50,52,54,56,-1,58,60,62,64,66,68,-1,70,72,74,-1,76,78,80,82,84,86,88,90,92,-1,94,96,98,100,-1,-1,-1,-1,-1,-1,-1,-1,-1,-1,-1,-1,-1,-1,-1,-1,-1,-1,-1,-1,-1,-1,-1,-1,-1,-1,-1,-1,-1,-1,-1,-1,-1,-1,-1,-1,-1,-1,-1,-1,-1,-1,-1,-1],"split_conditions":[-4.0403205E-1,6.08981E-1,-4.5318896E-1,1.3033172E0,5E0,3.9150915E-1,-5.2267456E-1,-6.305775E-1,-7.2001475E-1,-4.708522E-1,4.420532E-1,-7.068622E-1,1.2924639E0,5.4921585E-1,-1.5966049E-1,-7.45443E-1,-5.321478E-1,6.461272E-2,8.2481995E-2,4.1713767E0,-7.610279E-1,-5.8090992E-2,1.7837843E-2,-3.598107E-1,8.281285E-1,1.5177977E-1,-7.51684E-1,2.8250307E-1,2.4185793E0,5.2147204E-1,2.6430337E0,-6.97816E-2,-7.305368E-1,7.090262E-2,6.1072177E-1,-5.3763837E-1,-8.306868E-1,8.735642E-1,3.9936543E-2,7.439865E-2,-4.128069E-1,-7.156306E-1,-2.0780263E-2,-2.712622E-1,1.2625352E-1,1.2126598E0,1.6806525E-1,1.3247668E0,-3.251941E-1,-6.481142E-1,-1.7528649E-1,-2.6022464E-1,-1.727153E-2,6.6076E-1,-3.836162E-1,1.3858064E-1,1.4711875E-2,6.603955E-2,-3.662609E-2,-6.713951E-2,-4.5553654E-2,-5.8655787E-2,-3.7931814E-4,-5.7378944E-2,-7.193341E-3,2.0577993E-2,6.0159925E-2,-3.9140493E-2,1.5339651E-2,3.8147308E-2,-1.0592167E-2,2.4676878E-2,5.8750052E-2,6.505678E-2,3.7088674E-2,-5.7908192E-2,-1.6283093E-2,-3.256415E-2,3.5496876E-2,-1.9448843E-2,3.745815E-2,1.5450924E-2,5.1052786E-2,4.8938442E-2,9.386315E-3,2.000494E-2,6.396361E-2,3.1607796E-2,-5.6903075E-2,-2.0847294E-2,4.438801E-2,2.4240762E-3,6.250172E-2,-2.1476792E-2,5.2065045E-2,2.7986856E-2,5.8422856E-2,5.0272476E-2,6.452308E-2,2.2815702E-2,-4.4554565E-2],"split_indices":[11,5,12,14,24,5,14,2,2,12,12,2,5,12,11,2,11,0,12,5,11,0,0,3,14,11,12,11,12,12,11,0,2,14,12,11,11,14,0,2,14,2,0,5,11,14,14,2,11,2,12,11,0,5,14,11,3,0,0,0,0,0,0,0,0,0,0,0,0,0,0,0,0,0,0,0,0,0,0,0,0,0,0,0,0,0,0,0,0,0,0,0,0,0,0,0,0,0,0,0,0],"split_type":[0,0,0,0,0,0,0,0,0,0,0,0,0,0,0,0,0,0,0,0,0,0,0,0,0,0,0,0,0,0,0,0,0,0,0,0,0,0,0,0,0,0,0,0,0,0,0,0,0,0,0,0,0,0,0,0,0,0,0,0,0,0,0,0,0,0,0,0,0,0,0,0,0,0,0,0,0,0,0,0,0,0,0,0,0,0,0,0,0,0,0,0,0,0,0,0,0,0,0,0,0],"sum_hessian":[8.30792E3,3.3413696E3,4.966551E3,3.0673105E3,2.740593E2,2.0355831E3,2.9309675E3,2.8633743E3,2.0393608E2,2.5393146E2,2.012783E1,1.5152198E3,5.203632E2,3.7964117E2,2.5513262E3,1.2820447E3,1.5813297E3,8.408066E1,1.1985543E2,3.0437498E1,2.2349396E2,1.498567E1,5.14216E0,2.0129709E2,1.3139227E3,2.860439E2,2.3431934E2,2.6952325E2,1.1011793E2,5.719865E2,1.9793397E3,5.80193E2,7.018517E2,1.2238666E3,3.5746317E2,7.736745E1,4.2487984E1,2.3865736E1,6.571763E0,5.788878E1,1.6560518E2,1.9312354E2,8.173545E0,1.0674434E3,2.4647942E2,7.468282E1,2.1136108E2,8.421099E1,1.5010834E2,1.4313342E2,1.2638982E2,1.0269354E2,7.424387E0,2.6976712E2,3.0221942E2,1.9495458E3,2.9794003E1,2.5329962E2,4.4855206E2,1.0619648E3,1.6190172E2,2.0270462E2,1.5475854E2,6.26483E1,1.4719146E1,1.4866089E1,2.7621895E1,1.8474052E1,5.391682E0,2.604614E1,3.184264E1,8.725064E0,1.5688011E2,1.6364893E2,2.9474613E1,7.7687476E2,2.905686E2,7.793784E1,1.6854158E2,5.580247E1,1.8880352E1,9.84408E1,1.1292028E2,7.037007E1,1.3840923E1,6.2016344E0,1.4390671E2,6.2622533E0,1.3687117E2,4.7165295E1,7.9224525E1,1.4685134E1,8.800841E1,1.8831339E2,8.1453735E1,7.108552E1,2.3113391E2,5.694368E2,1.3801089E3,8.97584E0,2.0818163E1],"tree_param":{"num_deleted":"0","num_feature":"32","num_nodes":"101","size_leaf_vector":"1"}},{"base_weights":[-2.6486945E-4,-9.748066E-1,6.1935925E-1,-6.749991E-2,-7.785161E-1,-2.1604928E-1,1.1910354E0,1.7174166E0,-1.1397598E0,1.5261555E0,-4.0744302E-1,6.30708E-1,1.4883608E0,1.7815803E0,-4.128676E-2,-1.4151269E0,-6.102203E-1,1.6211152E0,-1.7103527E-2,-9.2610836E-1,1.3196482E-1,-1.6937223E-1,1.3080208E0,3.8662827E-1,1.58752E0,6.633425E-2,7.983177E-1,-1.563188E0,-9.183617E-1,-8.068995E-1,7.690175E-1,1.7522131E0,1.0346607E0,-6.463135E-1,-1.5170262E0,2.84306E-1,-1.6048663E0,-1.4582613E0,1.8933511E-1,8.0702895E-1,1.5218809E0,1.3212514E0,-4.9324867E-1,1.6326754E0,-7.5813895E-1,9.65181E-3,4.7960103E-2,-2.9260319E-2,-6.1386656E-2,-1.5458286E-2,-5.4539736E-2,1.5021011E-2,-3.699571E-2,4.4115756E-2,-7.512354E-3,6.4590245E-2,2.1346688E-2,-7.210204E-3,5.2963868E-2,-4.4074863E-2,-1.3307862E-2,-2.4986114E-2,-5.671655E-2,-5.4348413E-2,1.6585652E-2,-3.004103E-3,-6.28116E-2,3.1580213E-2,-6.0014684E-2,2.423141E-2,-3.4854036E-2,6.3590333E-3,4.130869E-2,5.6440808E-2,-2.2597171E-2,-3.4518277E-3,5.3421393E-2,-3.1867135E-2,1.755957E-2,4.9349707E-2,6.417084E-2,2.0580882E-2,-4.466603E-2],"categories":[],"categories_nodes":[],"categories_segments":[],"categories_sizes":[],"default_left":[0,0,0,0,0,0,0,0,0,0,0,0,0,0,0,0,0,0,0,0,0,0,0,0,0,0,0,0,0,0,0,0,0,0,0,0,0,0,0,0,0,0,0,0,0,0,0,0,0,0,0,0,0,0,0,0,0,0,0,0,0,0,0,0,0,0,0,0,0,0,0,0,0,0,0,0,0,0,0,0,0,0,0],"id":2,"left_children":[1,3,5,-1,7,9,11,13,15,17,19,21,23,25,-1,27,29,31,-1,33,35,37,39,41,43,-1,45,47,49,51,53,55,57,59,61,63,65,67,69,71,73,75,77,79,81,-1,-1,-1,-1,-1,-1,-1,-1,-1,-1,-1,-1,-1,-1,-1,-1,-1,-1,-1,-1,-1,-1,-1,-1,-1,-1,-1,-1,-1,-1,-1,-1,-1,-1,-1,-1,-1,-1],"loss_changes":[5.003692E3,5.591902E2,2.4200352E3,0E0,2.3909307E3,6.8906995E2,4.9820703E2,6.790869E1,3.345083E2,4.123288E1,5.205277E2,5.687107E2,2.1253076E2,1.2503052E1,0E0,1.0725366E2,2.1802048E2,9.428528E0,0E0,1.5371924E2,2.4328108E2,2.243067E2,5.7033203E1,1.3870094E2,1.9449023E2,0E0,5.1433544E0,1.137395E2,1.01154816E2,1.8585733E2,4.527066E1,2.8352966E0,2.3943588E1,1.019935E2,9.434631E0,2.6476324E2,1.4448502E1,5.4048203E1,2.1310632E2,3.6731834E1,3.5894592E1,1.8429108E1,3.4697327E1,5.959912E1,2.5052717E1,0E0,0E0,0E0,0E0,0E0,0E0,0E0,0E0,0E0,0E0,0E0,0E0,0E0,0E0,0E0,0E0,0E0,0E0,0E0,0E0,0E0,0E0,0E0,0E0,0E0,0E0,0E0,0E0,0E0,0E0,0E0,0E0,0E0,0E0,0E0,0E0,0E0,0E0],"parents":[2147483647,0,0,1,1,2,2,4,4,5,5,6,6,7,7,8,8,9,9,10,10,11,11,12,12,13,13,15,15,16,16,17,17,19,19,20,20,21,21,22,22,23,23,24,24,26,26,27,27,28,28,29,29,30,30,31,31,32,32,33,33,34,34,35,35,36,36,37,37,38,38,39,39,40,40,41,41,42,42,43,43,44,44],"right_children":[2,4,6,-1,8,10,12,14,16,18,20,22,24,26,-1,28,30,32,-1,34,36,38,40,42,44,-1,46,48,50,52,54,56,58,60,62,64,66,68,70,72,74,76,78,80,82,-1,-1,-1,-1,-1,-1,-1,-1,-1,-1,-1,-1,-1,-1,-1,-1,-1,-1,-1,-1,-1,-1,-1,-1,-1,-1,-1,-1,-1,-1,-1,-1,-1,-1,-1,-1,-1,-1],"split_conditions":[-4.3212247E-1,-7.403884E-1,-4.5318896E-1,-6.749991E-2,-7.2878313E-1,-7.068622E-1,-3.470342E-2,-4.2782474E-1,-6.279548E-1,-3.598107E-1,-3.329943E-2,4.3040887E-1,-5.134302E-1,-7.305368E-1,-4.128676E-2,-8.3839506E-2,1.4777175E0,-7.1826106E-1,-1.7103527E-2,3E0,2.4669597E0,-4.1235003E-1,-3.251941E-1,-4.4293457E-1,2.6430337E0,6.633425E-2,-5.134302E-1,-6.989707E-1,6.66263E-1,-6.1479443E-1,2.2781723E0,-3.8743943E-1,-4.350222E-1,2.0692283E-1,-6.8055713E-1,-8.57337E-1,8.1287473E-1,-6.516216E-1,-8.5853174E-2,8.25708E-1,2.6884542E0,-2.4687542E-1,5.2615218E-2,-6.9871E-2,1.4711875E-2,9.65181E-3,4.7960103E-2,-2.9260319E-2,-6.1386656E-2,-1.5458286E-2,-5.4539736E-2,1.5021011E-2,-3.699571E-2,4.4115756E-2,-7.512354E-3,6.4590245E-2,2.1346688E-2,-7.210204E-3,5.2963868E-2,-4.4074863E-2,-1.3307862E-2,-2.4986114E-2,-5.671655E-2,-5.4348413E-2,1.6585652E-2,-3.004103E-3,-6.28116E-2,3.1580213E-2,-6.0014684E-2,2.423141E-2,-3.4854036E-2,6.3590333E-3,4.130869E-2,5.6440808E-2,-2.2597171E-2,-3.4518277E-3,5.3421393E-2,-3.1867135E-2,1.755957E-2,4.9349707E-2,6.417084E-2,2.0580882E-2,-4.466603E-2],"split_indices":[11,9,12,0,2,2,11,4,11,3,6,12,6,2,0,6,23,2,0,25,11,6,11,2,11,0,6,2,2,2,20,3,3,11,2,12,3,2,8,12,12,12,12,12,3,0,0,0,0,0,0,0,0,0,0,0,0,0,0,0,0,0,0,0,0,0,0,0,0,0,0,0,0,0,0,0,0,0,0,0,0,0,0],"split_type":[0,0,0,0,0,0,0,0,0,0,0,0,0,0,0,0,0,0,0,0,0,0,0,0,0,0,0,0,0,0,0,0,0,0,0,0,0,0,0,0,0,0,0,0,0,0,0,0,0,0,0,0,0,0,0,0,0,0,0,0,0,0,0,0,0,0,0,0,0,0,0,0,0,0,0,0,0,0,0,0,0,0,0],"sum_hessian":[8.280096E3,3.2176333E3,5.0624624E3,5.757483E2,2.641885E3,2.0575852E3,3.0048774E3,3.3254572E2,2.3093394E3,2.0151707E2,1.856068E3,1.04508E3,1.9597975E3,3.2639407E2,6.151646E0,1.5158641E3,7.9347516E2,1.9294081E2,8.576275E0,9.450893E2,9.109787E2,4.8018878E2,5.648911E2,1.6308252E2,1.796715E3,3.0724387E2,1.9150206E1,1.1626516E3,3.5321246E2,6.955778E2,9.789731E1,1.5263194E2,4.030887E1,6.4581836E2,2.9927097E2,8.3991205E2,7.1066635E1,1.02466705E2,3.7772208E2,1.7344312E2,3.9144803E2,7.832368E1,8.4758835E1,1.7637089E3,3.3006126E1,1.1878702E1,7.2715025E0,1.790062E2,9.8364545E2,1.9568777E2,1.5752469E2,1.04068245E2,5.915096E2,6.645005E1,3.1447264E1,1.4669188E2,5.9400506E0,1.0845126E1,2.9463741E1,2.0784291E2,4.3797546E2,2.0122234E1,2.791487E2,7.253407E1,7.67378E2,6.0759287E0,6.499071E1,7.3152723E0,9.5151436E1,2.675086E2,1.10213486E2,6.1808693E1,1.1163442E2,3.853347E2,6.113323E0,7.885785E0,7.04379E1,6.0923576E1,2.3835258E1,6.2145264E2,1.1422562E3,8.566341E0,2.4439785E1],"tree_param":{"num_deleted":"0","num_feature":"32","num_nodes":"83","size_leaf_vector":"1"}},{"base_weights":[-1.3111219E-3,-1.7421664E0,1.7677915E0,-1.8322991E0,-5.877803E-1,6.149495E-1,6.669355E-2,-6.705327E-2,-1.5132071E0,-1.679394E0,1.5458363E0,-1.454019E0,1.7153345E0,-6.4454265E-2,5.4009736E-2,-6.81803E-2,-5.0422347E-1,7.065653E-1,6.590192E-2,-6.7269474E-2,-4.7587526E-1,7.403487E-1,6.582862E-2,-5.5365372E-2,8.9518595E-1,-4.342976E-2,5.1693074E-2,-5.9425E-2,9.67359E-1,-2.9394627E-2,5.494868E-2,-2.8589056E-4,4.6201583E-2,3.3623942E-3,4.888112E-2],"categories":[],"categories_nodes":[],"categories_segments":[],"categories_sizes":[],"default_left":[0,0,0,0,0,0,0,0,0,0,0,0,0,0,0,0,0,0,0,0,0,0,0,0,0,0,0,0,0,0,0,0,0,0,0],"id":3,"left_children":[1,3,5,7,9,11,-1,-1,13,15,17,19,21,-1,-1,-1,23,25,-1,-1,27,29,-1,-1,31,-1,-1,-1,33,-1,-1,-1,-1,-1,-1],"loss_changes":[2.5446072E4,4.2994727E2,3.5733984E2,1.815625E1,7.2122034E2,5.981591E2,0E0,0E0,2.2196002E2,4.6411926E1,2.0411911E1,3.36765E1,1.3268829E1,0E0,0E0,0E0,5.4081238E1,4.8313496E1,0E0,0E0,5.732966E1,3.0265984E1,0E0,0E0,5.776244E0,0E0,0E0,0E0,4.9386463E0,0E0,0E0,0E0,0E0,0E0,0E0],"parents":[2147483647,0,0,1,1,2,2,3,3,4,4,5,5,8,8,9,9,10,10,11,11,12,12,16,16,17,17,20,20,21,21,24,24,28,28],"right_children":[2,4,6,8,10,12,-1,-1,14,16,18,20,22,-1,-1,-1,24,26,-1,-1,28,30,-1,-1,32,-1,-1,-1,34,-1,-1,-1,-1,-1,-1],"split_conditions":[3.8261524E-1,3.205379E-1,4.2931163E-1,1.5163274E0,6.230054E-1,-2.3862522E-2,6.669355E-2,-6.705327E-2,2.567603E-1,3.9609066E-1,8.4388614E-1,-2.894057E-1,1.3585626E-1,-6.4454265E-2,5.4009736E-2,-6.81803E-2,3.593471E-1,3.433616E-1,6.590192E-2,-6.7269474E-2,4.122843E-1,4.0690202E-1,6.582862E-2,-5.5365372E-2,3.6547074E-1,-4.342976E-2,5.1693074E-2,-5.9425E-2,-1.8193905E-1,-2.9394627E-2,5.494868E-2,-2.8589056E-4,4.6201583E-2,3.3623942E-3,4.888112E-2],"split_indices":[17,17,17,19,19,19,0,0,17,19,19,19,19,0,0,0,17,17,0,0,17,17,0,0,17,0,0,0,19,0,0,0,0,0,0],"split_type":[0,0,0,0,0,0,0,0,0,0,0,0,0,0,0,0,0,0,0,0,0,0,0,0,0,0,0,0,0,0,0,0,0,0,0],"sum_hessian":[8.25615E3,4.161321E3,4.0948296E3,3.8582466E3,3.0307428E2,2.5621075E2,3.838619E3,3.5972227E3,2.6102393E2,2.0093404E2,1.0214024E2,8.8607796E1,1.6760297E2,2.4074844E2,2.0275496E1,1.6937706E2,3.1556963E1,2.805131E1,7.4088936E1,6.0629585E1,2.797821E1,1.8721718E1,1.4888124E2,1.8033548E1,1.3523415E1,7.142842E0,2.0908468E1,1.522918E1,1.274903E1,6.208846E0,1.2512872E1,4.9295197E0,8.593895E0,5.0729327E0,7.6760974E0],"tree_param":{"num_deleted":"0","num_feature":"32","num_nodes":"35","size_leaf_vector":"1"}},{"base_weights":[-3.1399399E-3,-1.6884267E0,1.7145617E0,-1.7779586E0,-5.500059E-1,5.912379E-1,6.4731665E-2,-6.488072E-2,-1.4520229E0,1.1151572E-1,-1.4212638E0,1.1284097E0,-8.361108E-1,1.4226233E-2,-1.5457817E0,4.6258003E-1,-5.982115E-1,1.9484252E-3,-1.4871242E0,1.3605634E0,6.203385E-1,-1.2162411E0,-4.7791013E-1,-1.5769298E0,-1.3000617E-2,7.9690516E-1,2.2531468E-2,-9.564623E-1,-1.7793708E-1,-5.077307E-1,-1.5800232E0,5.5672493E-2,8.9095974E-1,8.7598693E-1,-2.6211677E-2,-5.034518E-2,-1.3434436E-2,-7.349085E-1,1.9463731E-1,-1.7922318E-2,-5.80024E-2,3.3520624E-2,4.7647892E-3,1.8467678E-2,-2.6028724E-2,-7.7695115E-3,-4.316235E-2,-2.0365924E-2,2.3583699E-2,1.9432908E-2,-4.2630553E-2,-3.4744706E-2,-6.0641214E-2,4.0069446E-2,-1.3405904E-3,3.754356E-2,-8.850103E-4,-1.7614067E-2,2.3424398E-2,3.993041E-3,-3.4181383E-2,-1.7242298E-2,2.7618656E-2],"categories":[],"categories_nodes":[],"categories_segments":[],"categories_sizes":[],"default_left":[0,0,0,0,0,0,0,0,0,0,0,0,0,0,0,0,0,0,0,0,0,0,0,0,0,0,0,0,0,0,0,0,0,0,0,0,0,0,0,0,0,0,0,0,0,0,0,0,0,0,0,0,0,0,0,0,0,0,0,0,0,0,0],"id":4,"left_children":[1,3,5,7,9,11,-1,-1,13,15,17,19,21,-1,23,25,27,-1,29,31,33,35,37,39,-1,41,43,45,47,49,51,-1,53,55,57,-1,-1,59,61,-1,-1,-1,-1,-1,-1,-1,-1,-1,-1,-1,-1,-1,-1,-1,-1,-1,-1,-1,-1,-1,-1,-1,-1],"loss_changes":[2.379256E4,4.1980762E2,3.413086E2,1.20546875E1,1.7743051E2,2.0272562E2,0E0,0E0,3.6016876E1,4.5059258E1,1.3143524E1,1.9859055E1,8.135345E0,0E0,5.1934814E0,1.7662737E1,8.513435E0,0E0,9.071533E0,6.5017242E0,1.0900349E1,3.3551102E0,7.8314085E0,2.8410645E0,0E0,5.529522E0,2.1144855E1,4.7765903E0,1.1204056E1,1.2915611E1,1.8577881E0,0E0,8.740822E0,6.9474525E0,7.686777E0,0E0,0E0,5.936041E0,6.588225E0,0E0,0E0,0E0,0E0,0E0,0E0,0E0,0E0,0E0,0E0,0E0,0E0,0E0,0E0,0E0,0E0,0E0,0E0,0E0,0E0,0E0,0E0,0E0,0E0],"parents":[2147483647,0,0,1,1,2,2,3,3,4,4,5,5,8,8,9,9,10,10,11,11,12,12,14,14,15,15,16,16,18,18,19,19,20,20,21,21,22,22,23,23,25,25,26,26,27,27,28,28,29,29,30,30,32,32,33,33,34,34,37,37,38,38],"right_children":[2,4,6,8,10,12,-1,-1,14,16,18,20,22,-1,24,26,28,-1,30,32,34,36,38,40,-1,42,44,46,48,50,52,-1,54,56,58,-1,-1,60,62,-1,-1,-1,-1,-1,-1,-1,-1,-1,-1,-1,-1,-1,-1,-1,-1,-1,-1,-1,-1,-1,-1,-1,-1],"split_conditions":[3.8261524E-1,3.205379E-1,4.2931163E-1,2.7474836E-1,2.4040539E-2,1.817876E-1,6.4731665E-2,-6.488072E-2,-1.8167553E0,1.4249499E-1,-7.283647E-1,-6.831626E-2,4.0690202E-1,1.4226233E-2,3.7719827E0,-3.578863E-1,3.5505497E-1,1.9484252E-3,-1.2051954E0,-9.385182E-2,-2.4703522E-1,2.845983E-1,3.6842763E-1,-2.614841E0,-1.3000617E-2,5.8263546E-1,-3.5813674E-1,-1.4816409E0,8.957161E-1,-3.981839E-1,1.2680319E-1,5.5672493E-2,1.1908702E-1,-6.289033E-2,8.688971E-1,-5.034518E-2,-1.3434436E-2,-4.4148624E-1,-4.0484816E-1,-1.7922318E-2,-5.80024E-2,3.3520624E-2,4.7647892E-3,1.8467678E-2,-2.6028724E-2,-7.7695115E-3,-4.316235E-2,-2.0365924E-2,2.3583699E-2,1.9432908E-2,-4.2630553E-2,-3.4744706E-2,-6.0641214E-2,4.0069446E-2,-1.3405904E-3,3.754356E-2,-8.850103E-4,-1.7614067E-2,2.3424398E-2,3.993041E-3,-3.4181383E-2,-1.7242298E-2,2.7618656E-2],"split_indices":[17,17,17,17,18,18,0,0,18,4,9,4,17,0,0,18,17,0,21,18,18,10,11,22,0,3,9,18,12,3,18,0,3,7,21,0,0,21,12,0,0,0,0,0,0,0,0,0,0,0,0,0,0,0,0,0,0,0,0,0,0,0,0],"split_type":[0,0,0,0,0,0,0,0,0,0,0,0,0,0,0,0,0,0,0,0,0,0,0,0,0,0,0,0,0,0,0,0,0,0,0,0,0,0,0,0,0,0,0,0,0,0,0,0,0,0,0,0,0,0,0,0,0,0,0,0,0,0,0],"sum_hessian":[8.212785E3,4.1455347E3,4.067251E3,3.8416555E3,3.0387915E2,2.5745767E2,3.8097932E3,3.647548E3,1.9410735E2,1.7427333E2,1.2960583E2,1.875331E2,6.992457E1,8.904069E0,1.8520328E2,1.1732374E2,5.6949596E1,5.563393E0,1.2404244E2,1.25132126E2,6.2400967E1,3.0305525E1,3.961904E1,1.7946585E2,5.7374225E0,6.523603E1,5.2087704E1,2.8598986E1,2.835061E1,1.24905205E1,1.1155192E2,8.54807E1,3.965143E1,4.392714E1,1.847383E1,2.3413425E1,6.8920984E0,2.8456396E1,1.1162648E1,5.827861E0,1.7363799E2,5.3546253E1,1.1689776E1,3.200928E1,2.0078424E1,8.3645525E0,2.0234434E1,2.0047998E1,8.302611E0,5.1267905E0,7.36373E0,1.9677639E1,9.187428E1,3.164699E1,8.004439E0,3.682064E1,7.106499E0,1.1484156E1,6.989673E0,5.9626584E0,2.2493736E1,5.3524327E0,5.810215E0],"tree_param":{"num_deleted":"0","num_feature":"32","num_nodes":"63","size_leaf_vector":"1"}},{"base_weights":[1.065029E-3,-1.6384941E0,1.6678079E0,-1.7295989E0,-5.8839196E-1,5.775151E-1,6.293564E-2,-6.336161E-2,-1.483312E0,-1.6093092E0,1.403518E0,-1.4622278E0,1.6080645E0,-6.135604E-2,1.1658851E0,-1.762603E0,-2.296746E-1,5.1637954E-1,1.6930209E0,-6.457863E-2,-5.5080247E-1,5.8733493E-1,6.2293675E-2,1.1520523E-2,5.3434256E-2,-6.495016E-2,-9.123205E-1,-5.2721523E-2,9.0459675E-1,-4.6235427E-2,4.9878415E-2,2.3631433E-2,6.345283E-2,-5.0639227E-2,3.9552804E-2,-4.0811498E-2,5.3129334E-2,-7.6663885E-3,-4.4653617E-2,9.237679E-3,4.5302898E-2],"categories":[],"categories_nodes":[],"categories_segments":[],"categories_sizes":[],"default_left":[0,0,0,0,0,0,0,0,0,0,0,0,0,0,0,0,0,0,0,0,0,0,0,0,0,0,0,0,0,0,0,0,0,0,0,0,0,0,0,0,0],"id":5,"left_children":[1,3,5,7,9,11,-1,-1,13,15,17,19,21,-1,23,25,27,29,31,-1,33,35,-1,-1,-1,-1,37,-1,39,-1,-1,-1,-1,-1,-1,-1,-1,-1,-1,-1,-1],"loss_changes":[2.231329E4,3.9062305E2,3.1674707E2,1.2838867E1,6.8486584E2,5.4750854E2,0E0,0E0,1.9629517E2,4.5652893E1,2.6713562E1,2.2848236E1,1.6967834E1,0E0,5.642948E0,5.494995E-1,3.9994656E1,5.609899E1,1.8717041E0,0E0,4.3216015E1,3.857827E1,0E0,0E0,0E0,0E0,2.312172E0,0E0,2.4643555E0,0E0,0E0,0E0,0E0,0E0,0E0,0E0,0E0,0E0,0E0,0E0,0E0],"parents":[2147483647,0,0,1,1,2,2,3,3,4,4,5,5,8,8,9,9,10,10,11,11,12,12,14,14,15,15,16,16,17,17,18,18,20,20,21,21,26,26,28,28],"right_children":[2,4,6,8,10,12,-1,-1,14,16,18,20,22,-1,24,26,28,30,32,-1,34,36,-1,-1,-1,-1,38,-1,40,-1,-1,-1,-1,-1,-1,-1,-1,-1,-1,-1,-1],"split_conditions":[3.8261524E-1,3.150222E-1,4.2931163E-1,1.330405E0,6.230054E-1,-5.3076837E-2,6.293564E-2,-6.336161E-2,2.567603E-1,4.8798177E-1,8.4388614E-1,-2.894057E-1,1.1160329E-1,-6.135604E-2,-5.735831E-1,3.9609066E-1,3.5505497E-1,3.433616E-1,3.205379E-1,-6.457863E-2,4.1826296E-1,4.0690202E-1,6.2293675E-2,1.1520523E-2,5.3434256E-2,-6.495016E-2,-2.9825664E-1,-5.2721523E-2,3.6547074E-1,-4.6235427E-2,4.9878415E-2,2.3631433E-2,6.345283E-2,-5.0639227E-2,3.9552804E-2,-4.0811498E-2,5.3129334E-2,-7.6663885E-3,-4.4653617E-2,9.237679E-3,4.5302898E-2],"split_indices":[17,17,17,19,19,19,0,0,17,19,19,19,19,0,2,19,17,17,17,0,17,17,0,0,0,0,2,0,17,0,0,0,0,0,0,0,0,0,0,0,0],"split_type":[0,0,0,0,0,0,0,0,0,0,0,0,0,0,0,0,0,0,0,0,0,0,0,0,0,0,0,0,0,0,0,0,0,0,0,0,0,0,0,0,0],"sum_hessian":[8.1589927E3,4.113064E3,4.0459292E3,3.7828562E3,3.3020755E2,2.538671E2,3.792062E3,3.4494504E3,3.3340585E2,2.1870984E2,1.1149771E2,8.477321E1,1.6909389E2,3.0960077E2,2.3805079E1,1.9606087E2,2.264897E1,2.9565544E1,8.193217E1,6.036337E1,2.4409842E1,1.8973059E1,1.5012082E2,8.094287E0,1.5710792E1,1.8532533E2,1.0735527E1,1.0448017E1,1.22009535E1,9.111678E0,2.0453865E1,6.6012154E0,7.5330956E1,1.6400667E1,8.009174E0,6.1447787E0,1.2828281E1,5.011208E0,5.7243195E0,6.1430674E0,6.057886E0],"tree_param":{"num_deleted":"0","num_feature":"32","num_nodes":"41","size_leaf_vector":"1"}},{"base_weights":[-3.2712168E-3,4.889201E-1,-1.0182049E0,-1.0644537E0,1.0054119E0,-1.2402953E0,6.69267E-1,-1.3259404E0,1.4458015E0,1.1106306E0,-9.035098E-1,-1.3550974E0,5.6340635E-1,8.9461994E-1,-1.1201673E0,-1.4885851E0,7.8390974E-1,2.8586656E-1,1.5640447E0,1.2906233E0,3.4598315E-1,1.2686427E0,-1.260219E0,-1.4633769E0,-5.3652626E-1,9.132608E-1,-1.5952758E-1,-3.6408073E-1,1.2501758E0,-4.5620438E-1,-5.2937828E-2,-9.808488E-1,-1.564683E0,3.8037702E-2,5.247423E-2,-1.8713323E-2,2.8554475E-2,5.8568597E-2,2.507214E-2,5.0074774E-1,1.4162982E0,-2.8789032E-1,1.0554298E0,5.1394176E-2,1.8527612E-2,-1.5301131E0,-2.7559645E-2,-1.0975366E0,-1.5994167E0,5.776572E-1,-1.3995271E0,1.0557623E0,-1.0761805E-2,9.552896E-1,-8.7896377E-1,-1.1035864E0,9.75735E-2,4.004585E-1,1.3421637E0,-2.3122821E-2,-2.229131E-3,1.0823025E-2,-4.560167E-2,-5.6961793E-2,2.8421977E-3,-2.3610594E-2,3.3077672E-2,-4.109486E-3,5.291808E-2,5.2350547E-2,-1.0226407E-2,2.9575724E-2,-2.382154E-2,4.9101427E-2,-8.922501E-3,-5.779961E-2,9.500426E-3,-2.8818391E-2,2.2569725E-2,-4.9788598E-2,3.2797955E-2,-4.6696916E-2,-6.07529E-2,3.3534754E-2,-2.4191782E-2,3.1816736E-2,-5.4104082E-2,4.851051E-2,2.016208E-2,4.1405503E-2,8.596634E-3,-3.8499516E-3,-4.386593E-2,-4.5716755E-2,-1.6331872E-2,-4.462934E-2,1.9502746E-2,2.8924758E-2,-1.6172576E-3,2.8446801E-2,5.1172785E-2],"categories":[],"categories_nodes":[],"categories_segments":[],"categories_sizes":[],"default_left":[0,0,0,0,0,0,0,0,0,0,0,0,0,0,0,0,0,0,0,0,0,0,0,0,0,0,0,0,0,0,0,0,0,0,0,0,0,0,0,0,0,0,0,0,0,0,0,0,0,0,0,0,0,0,0,0,0,0,0,0,0,0,0,0,0,0,0,0,0,0,0,0,0,0,0,0,0,0,0,0,0,0,0,0,0,0,0,0,0,0,0,0,0,0,0,0,0,0,0,0,0],"id":6,"left_children":[1,3,5,7,9,11,13,15,17,19,21,23,25,27,29,31,33,35,37,39,41,43,45,47,49,51,53,55,57,59,-1,61,63,65,-1,-1,-1,-1,-1,67,69,71,73,-1,-1,75,77,79,81,83,85,87,-1,89,91,93,95,97,99,-1,-1,-1,-1,-1,-1,-1,-1,-1,-1,-1,-1,-1,-1,-1,-1,-1,-1,-1,-1,-1,-1,-1,-1,-1,-1,-1,-1,-1,-1,-1,-1,-1,-1,-1,-1,-1,-1,-1,-1,-1,-1],"loss_changes":[4.0334282E3,4.365794E3,9.90803E2,8.975576E2,8.2305615E2,4.851106E2,1.2760481E2,4.2632812E2,1.6387512E1,5.312915E2,1.7154395E2,1.9190283E2,3.629289E1,1.2489456E2,6.1143837E0,3.944995E1,4.4707733E1,7.6661687E0,2.1523438E0,3.0867383E2,3.3449548E2,1.4091759E0,6.1818817E1,9.082324E1,2.5355298E2,1.753453E1,4.180329E1,2.1905247E1,1.5196991E1,1.089381E0,0E0,5.766638E1,1.7304688E1,2.9587515E1,0E0,0E0,0E0,0E0,0E0,2.5758093E2,1.4475244E2,1.6328932E2,1.3907706E2,0E0,0E0,1.996051E1,1.990601E1,3.0292505E2,2.8061035E1,5.255865E1,3.666916E1,9.986588E0,0E0,1.9635487E0,7.6785755E0,7.9091835E-1,2.663456E1,4.648548E0,4.362274E0,0E0,0E0,0E0,0E0,0E0,0E0,0E0,0E0,0E0,0E0,0E0,0E0,0E0,0E0,0E0,0E0,0E0,0E0,0E0,0E0,0E0,0E0,0E0,0E0,0E0,0E0,0E0,0E0,0E0,0E0,0E0,0E0,0E0,0E0,0E0,0E0,0E0,0E0,0E0,0E0,0E0,0E0],"parents":[2147483647,0,0,1,1,2,2,3,3,4,4,5,5,6,6,7,7,8,8,9,9,10,10,11,11,12,12,13,13,14,14,15,15,16,16,17,17,18,18,19,19,20,20,21,21,22,22,23,23,24,24,25,25,26,26,27,27,28,28,29,29,31,31,32,32,33,33,39,39,40,40,41,41,42,42,45,45,46,46,47,47,48,48,49,49,50,50,51,51,53,53,54,54,55,55,56,56,57,57,58,58],"right_children":[2,4,6,8,10,12,14,16,18,20,22,24,26,28,30,32,34,36,38,40,42,44,46,48,50,52,54,56,58,60,-1,62,64,66,-1,-1,-1,-1,-1,68,70,72,74,-1,-1,76,78,80,82,84,86,88,-1,90,92,94,96,98,100,-1,-1,-1,-1,-1,-1,-1,-1,-1,-1,-1,-1,-1,-1,-1,-1,-1,-1,-1,-1,-1,-1,-1,-1,-1,-1,-1,-1,-1,-1,-1,-1,-1,-1,-1,-1,-1,-1,-1,-1,-1,-1],"split_conditions":[3.97908E-1,-5.560518E-1,1.6435653E0,5.78971E-1,2.5540223E0,2.2125573E0,3.3344606E-1,2.1067932E-1,-4.2734757E-1,1.7419358E-1,-3.598107E-1,9.941229E-1,-4.4269687E-1,1.817876E-1,4.6259087E-1,-9.3392783E-1,8.028828E-1,-1.8176338E-1,6.780672E-1,-7.7689195E-1,-1.1276229E-1,-3.981839E-1,-3.4874582E-1,-4.3041742E-1,5.407099E-1,-5.06879E-1,5.858036E-1,7.37821E-3,8.969148E-2,-3.6132976E-1,-5.2937828E-2,-3.9206213E-1,2.3788178E-1,-8.039897E-1,5.247423E-2,-1.8713323E-2,2.8554475E-2,5.8568597E-2,2.507214E-2,8.7348795E-1,2.4185793E0,-3.5213608E-1,5.2135557E-1,5.1394176E-2,1.8527612E-2,8.735642E-1,-2.4996786E-1,-2.7465382E-1,5.263811E-1,1.01957686E-1,-2.919738E-1,1.0521106E0,-1.0761805E-2,-3.3985662E-1,-4.3195236E-1,1E0,4.6350098E-1,2E0,-3.1548482E-1,-2.3122821E-2,-2.229131E-3,1.0823025E-2,-4.560167E-2,-5.6961793E-2,2.8421977E-3,-2.3610594E-2,3.3077672E-2,-4.109486E-3,5.291808E-2,5.2350547E-2,-1.0226407E-2,2.9575724E-2,-2.382154E-2,4.9101427E-2,-8.922501E-3,-5.779961E-2,9.500426E-3,-2.8818391E-2,2.2569725E-2,-4.9788598E-2,3.2797955E-2,-4.6696916E-2,-6.07529E-2,3.3534754E-2,-2.4191782E-2,3.1816736E-2,-5.4104082E-2,4.851051E-2,2.016208E-2,4.1405503E-2,8.596634E-3,-3.8499516E-3,-4.386593E-2,-4.5716755E-2,-1.6331872E-2,-4.462934E-2,1.9502746E-2,2.8924758E-2,-1.6172576E-3,2.8446801E-2,5.1172785E-2],"split_indices":[10,11,10,13,11,14,18,14,3,10,3,13,3,18,18,23,14,14,18,12,13,3,12,3,10,4,10,18,22,1,0,4,15,11,0,0,0,0,0,13,12,3,11,0,0,14,14,11,10,11,5,10,0,3,3,30,19,24,19,0,0,0,0,0,0,0,0,0,0,0,0,0,0,0,0,0,0,0,0,0,0,0,0,0,0,0,0,0,0,0,0,0,0,0,0,0,0,0,0,0,0],"split_type":[0,0,0,0,0,0,0,0,0,0,0,0,0,0,0,0,0,0,0,0,0,0,0,0,0,0,0,0,0,0,0,0,0,0,0,0,0,0,0,0,0,0,0,0,0,0,0,0,0,0,0,0,0,0,0,0,0,0,0,0,0,0,0,0,0,0,0,0,0,0,0,0,0,0,0,0,0,0,0,0,0,0,0,0,0,0,0,0,0,0,0,0,0,0,0,0,0,0,0,0,0],"sum_hessian":[8.068044E3,5.434299E3,2.633745E3,1.3551917E3,4.0791072E3,2.3281584E3,3.0558676E2,1.228673E3,1.2651867E2,3.8672485E3,2.1185858E2,2.1895708E3,1.3858757E2,2.7278983E2,3.2796944E1,1.1415868E3,8.708614E1,1.26885E1,1.1383017E2,3.1286455E3,7.38603E2,2.8761E1,1.8309758E2,1.9316078E3,2.57963E2,9.283943E1,4.5748135E1,6.006821E1,2.1272162E2,1.3656922E1,1.9140024E1,1.5443279E2,9.8715405E2,4.2668774E1,4.441737E1,4.857215E0,7.8312855E0,1.0449669E2,9.333482E0,4.3159024E2,2.6970554E3,3.9105493E2,3.475481E2,2.1657795E1,7.103205E0,1.4959256E2,3.350502E1,5.312353E2,1.4003726E3,1.1304495E2,1.4491806E2,8.342059E1,9.418836E0,1.7543123E1,2.8205013E1,2.1422693E1,3.864552E1,2.2407257E1,1.9031436E2,8.007576E0,5.6493464E0,2.7686943E1,1.2674584E2,9.8107587E2,6.0781617E0,2.4306282E1,1.8362492E1,2.6511288E2,1.6647736E2,2.648762E3,4.8293404E1,9.726677E1,2.9378815E2,2.8195767E2,6.559044E1,1.4444113E2,5.15142E0,1.5047072E1,1.8457949E1,4.6714334E2,6.409195E1,3.0100446E2,1.099368E3,8.890697E1,2.4137989E1,4.861742E0,1.4005632E2,4.967514E1,3.3745453E1,1.2409455E1,5.1336675E0,9.752991E0,1.8452023E1,1.4844057E1,6.5786366E0,8.234683E0,3.0410835E1,1.0504102E1,1.1903156E1,2.6318336E1,1.6399602E2],"tree_param":{"num_deleted":"0","num_feature":"32","num_nodes":"101","size_leaf_vector":"1"}},{"base_weights":[-1.0743459E-3,-1.5676227E0,1.5964179E0,-1.6540911E0,-5.767362E-1,5.6730074E-1,6.0249176E-2,-6.0479835E-2,-1.382372E0,-1.5718167E0,1.3766519E0,-1.3959692E0,1.5565276E0,-1.612704E0,5.0725773E-2,-1.7142202E0,-2.811991E-1,5.626162E-1,1.646796E0,-6.296559E-2,-4.8233992E-1,5.308402E-1,6.002552E-2,-5.920247E-2,-2.3042316E-2,-6.317765E-2,-8.863986E-1,-5.176364E-2,8.420811E-1,-4.394104E-2,4.8715897E-2,2.5209347E-2,6.1370227E-2,-5.5727307E-2,8.384133E-1,-3.92218E-2,5.0108664E-2,-7.2642644E-3,-4.3575622E-2,8.282152E-3,4.306212E-2,2.4229449E-3,4.432021E-2],"categories":[],"categories_nodes":[],"categories_segments":[],"categories_sizes":[],"default_left":[0,0,0,0,0,0,0,0,0,0,0,0,0,0,0,0,0,0,0,0,0,0,0,0,0,0,0,0,0,0,0,0,0,0,0,0,0,0,0,0,0,0,0],"id":7,"left_children":[1,3,5,7,9,11,-1,-1,13,15,17,19,21,23,-1,25,27,29,31,-1,33,35,-1,-1,-1,-1,37,-1,39,-1,-1,-1,-1,-1,41,-1,-1,-1,-1,-1,-1,-1,-1],"loss_changes":[2.003424E4,3.433418E2,2.808086E2,1.1246094E1,6.465982E2,5.0332446E2,0E0,0E0,1.6872113E2,3.8848328E1,2.1911224E1,2.4914291E1,1.5420868E1,2.3130493E0,0E0,5.2075195E-1,3.6749935E1,5.0869385E1,2.7493286E-1,0E0,4.3512177E1,3.265775E1,0E0,0E0,0E0,0E0,2.2640533E0,0E0,2.3318644E0,0E0,0E0,0E0,0E0,0E0,4.0990105E0,0E0,0E0,0E0,0E0,0E0,0E0,0E0,0E0],"parents":[2147483647,0,0,1,1,2,2,3,3,4,4,5,5,8,8,9,9,10,10,11,11,12,12,13,13,15,15,16,16,17,17,18,18,20,20,21,21,26,26,28,28,34,34],"right_children":[2,4,6,8,10,12,-1,-1,14,16,18,20,22,24,-1,26,28,30,32,-1,34,36,-1,-1,-1,-1,38,-1,40,-1,-1,-1,-1,-1,42,-1,-1,-1,-1,-1,-1,-1,-1],"split_conditions":[3.8261524E-1,3.150222E-1,4.2931163E-1,1.5163274E0,6.230054E-1,-5.3076837E-2,6.0249176E-2,-6.0479835E-2,2.567603E-1,4.8798177E-1,8.4388614E-1,-2.894057E-1,1.1160329E-1,2.1965225E-1,5.0725773E-2,3.9609066E-1,3.5505497E-1,3.433616E-1,3.205379E-1,-6.296559E-2,4.122843E-1,4.0690202E-1,6.002552E-2,-5.920247E-2,-2.3042316E-2,-6.317765E-2,-2.9825664E-1,-5.176364E-2,3.6547074E-1,-4.394104E-2,4.8715897E-2,2.5209347E-2,6.1370227E-2,-5.5727307E-2,-1.8193905E-1,-3.92218E-2,5.0108664E-2,-7.2642644E-3,-4.3575622E-2,8.282152E-3,4.306212E-2,2.4229449E-3,4.432021E-2],"split_indices":[17,17,17,19,19,19,0,0,17,19,19,19,19,17,0,19,17,17,17,0,17,17,0,0,0,0,2,0,17,0,0,0,0,0,19,0,0,0,0,0,0,0,0],"split_type":[0,0,0,0,0,0,0,0,0,0,0,0,0,0,0,0,0,0,0,0,0,0,0,0,0,0,0,0,0,0,0,0,0,0,0,0,0,0,0,0,0,0,0],"sum_hessian":[7.999308E3,4.0387996E3,3.9605085E3,3.712729E3,3.2607065E2,2.5256557E2,3.7079429E3,3.4638025E3,2.4892636E2,2.164278E2,1.0964285E2,8.419256E1,1.68373E2,2.3112222E2,1.780415E1,1.9400038E2,2.2427422E1,2.9711107E1,7.993174E1,5.9061943E1,2.5130615E1,1.715038E1,1.5122263E2,2.2343762E2,7.68459E0,1.8329468E2,1.070569E1,1.0659305E1,1.1768116E1,8.573543E0,2.1137564E1,6.3385053E0,7.359324E1,1.3661573E1,1.1469041E1,5.644914E0,1.15054655E1,5.0069337E0,5.698757E0,6.136454E0,5.631662E0,5.0526557E0,6.4163857E0],"tree_param":{"num_deleted":"0","num_feature":"32","num_nodes":"43","size_leaf_vector":"1"}},{"base_weights":[1.4715729E-5,-1.5301301E0,1.5580634E0,-1.6098429E0,-5.354212E-1,5.3207815E-1,5.8847595E-2,-5.9118524E-2,-1.3419688E0,-1.5191145E0,1.406313E0,-1.3832705E0,1.4990215E0,-5.7133377E-2,1.2298946E0,-6.1728444E-2,-4.079388E-1,6.457717E-1,5.9718926E-2,-6.110204E-2,-5.216981E-1,4.3201846E-1,5.8429245E-2,8.953982E-3,5.3711552E-2,-5.4348607E-2,7.2994137E-1,-3.9904118E-2,4.8099965E-2,-5.4205842E-2,7.6677036E-1,-4.049587E-2,4.894791E-2,5.260899E-4,4.2685803E-2,-7.8329555E-4,4.2572547E-2],"categories":[],"categories_nodes":[],"categories_segments":[],"categories_sizes":[],"default_left":[0,0,0,0,0,0,0,0,0,0,0,0,0,0,0,0,0,0,0,0,0,0,0,0,0,0,0,0,0,0,0,0,0,0,0,0,0],"id":8,"left_children":[1,3,5,7,9,11,-1,-1,13,15,17,19,21,-1,23,-1,25,27,-1,-1,29,31,-1,-1,-1,-1,33,-1,-1,-1,35,-1,-1,-1,-1,-1,-1],"loss_changes":[1.8864865E4,3.1386426E2,2.755166E2,1.7785156E1,5.813053E2,4.735998E2,0E0,0E0,2.0871454E2,3.980893E1,1.5831757E1,2.001323E1,1.8872498E1,0E0,6.3278313E0,0E0,4.474527E1,4.066325E1,0E0,0E0,3.7726192E1,3.4624058E1,0E0,0E0,0E0,0E0,5.863249E0,0E0,0E0,0E0,4.53117E0,0E0,0E0,0E0,0E0,0E0,0E0],"parents":[2147483647,0,0,1,1,2,2,3,3,4,4,5,5,8,8,9,9,10,10,11,11,12,12,14,14,16,16,17,17,20,20,21,21,26,26,30,30],"right_children":[2,4,6,8,10,12,-1,-1,14,16,18,20,22,-1,24,-1,26,28,-1,-1,30,32,-1,-1,-1,-1,34,-1,-1,-1,36,-1,-1,-1,-1,-1,-1],"split_conditions":[3.8261524E-1,3.205379E-1,4.2931163E-1,1.330405E0,6.230054E-1,-5.3076837E-2,5.8847595E-2,-5.9118524E-2,2.567603E-1,3.9609066E-1,8.4388614E-1,-2.894057E-1,1.1160329E-1,-5.7133377E-2,2.7474836E-1,-6.1728444E-2,3.5505497E-1,3.433616E-1,5.9718926E-2,-6.110204E-2,4.122843E-1,4.0690202E-1,5.8429245E-2,8.953982E-3,5.3711552E-2,-5.4348607E-2,3.6547074E-1,-3.9904118E-2,4.8099965E-2,-5.4205842E-2,-1.8193905E-1,-4.049587E-2,4.894791E-2,5.260899E-4,4.2685803E-2,-7.8329555E-4,4.2572547E-2],"split_indices":[17,17,17,19,19,19,0,0,17,19,19,19,19,0,17,0,17,17,0,0,17,17,0,0,0,0,17,0,0,0,19,0,0,0,0,0,0],"split_type":[0,0,0,0,0,0,0,0,0,0,0,0,0,0,0,0,0,0,0,0,0,0,0,0,0,0,0,0,0,0,0,0,0,0,0,0,0],"sum_hessian":[7.9067544E3,3.9891265E3,3.9176277E3,3.6913855E3,2.9774115E2,2.4911935E2,3.6685083E3,3.3632024E3,3.2818307E2,1.9807361E2,9.966754E1,8.312415E1,1.6599521E2,3.0150015E2,2.6682924E1,1.6801299E2,3.0060627E1,2.7042574E1,7.262497E1,5.911596E1,2.4008194E1,1.7800388E1,1.4819482E2,6.769667E0,1.9913256E1,1.48108635E1,1.5249764E1,7.0678716E0,1.99747E1,1.336428E1,1.0643915E1,6.3822803E0,1.1418108E1,7.133294E0,8.11647E0,4.6535716E0,5.990343E0],"tree_param":{"num_deleted":"0","num_feature":"32","num_nodes":"37","size_leaf_vector":"1"}},{"base_weights":[-4.7230456E-4,-1.492841E0,1.5232985E0,-1.5766536E0,-5.42532E-1,5.197996E-1,5.7545245E-2,-5.781723E-2,-1.3365185E0,-1.4878329E0,1.2895473E0,-1.3177987E0,1.4709083E0,-1.5484607E0,1.1147857E0,-1.6248192E0,-2.6245663E-1,4.9452347E-1,1.5517954E0,-5.9579708E-2,-4.1339046E-1,5.594732E-1,5.756356E-2,-5.6655128E-2,-7.782486E-1,9.8127285E-3,5.0010324E-2,-5.987305E-2,-8.347717E-1,-4.924289E-2,8.0500543E-1,-4.241701E-2,4.5803476E-2,2.224878E-2,5.81316E-2,-5.2570473E-2,8.547676E-1,-3.293221E-2,4.9825348E-2,-5.5228528E-3,-3.8591865E-2,-6.9394284E-3,-4.1292697E-2,8.07164E-3,4.1082617E-2,4.8864023E-3,4.2514514E-2],"categories":[],"categories_nodes":[],"categories_segments":[],"categories_sizes":[],"default_left":[0,0,0,0,0,0,0,0,0,0,0,0,0,0,0,0,0,0,0,0,0,0,0,0,0,0,0,0,0,0,0,0,0,0,0,0,0,0,0,0,0,0,0,0,0,0,0],"id":9,"left_children":[1,3,5,7,9,11,-1,-1,13,15,17,19,21,23,25,27,29,31,33,-1,35,37,-1,-1,39,-1,-1,-1,41,-1,43,-1,-1,-1,-1,-1,45,-1,-1,-1,-1,-1,-1,-1,-1,-1,-1],"loss_changes":[1.7737893E4,3.1120508E2,2.6045898E2,1.2541016E1,5.6732324E2,4.4169928E2,0E0,0E0,1.735946E2,3.4805023E1,2.0959412E1,2.3717163E1,1.54758E1,3.8586426E-1,5.067257E0,3.8778687E-1,3.316557E1,4.6265034E1,1.2327881E0,0E0,3.989139E1,3.301409E1,0E0,0E0,1.8551607E0,0E0,0E0,0E0,1.9852409E0,0E0,2.0647364E0,0E0,0E0,0E0,0E0,0E0,2.7991495E0,0E0,0E0,0E0,0E0,0E0,0E0,0E0,0E0,0E0,0E0],"parents":[2147483647,0,0,1,1,2,2,3,3,4,4,5,5,8,8,9,9,10,10,11,11,12,12,13,13,14,14,15,15,16,16,17,17,18,18,20,20,21,21,24,24,28,28,30,30,36,36],"right_children":[2,4,6,8,10,12,-1,-1,14,16,18,20,22,24,26,28,30,32,34,-1,36,38,-1,-1,40,-1,-1,-1,42,-1,44,-1,-1,-1,-1,-1,46,-1,-1,-1,-1,-1,-1,-1,-1,-1,-1],"split_conditions":[3.8261524E-1,3.150222E-1,4.2931163E-1,1.330405E0,6.230054E-1,-5.3076837E-2,5.7545245E-2,-5.781723E-2,2.567603E-1,4.8798177E-1,8.4388614E-1,-2.894057E-1,1.3585626E-1,2.1965225E-1,-6.393458E-1,3.9609066E-1,3.5505497E-1,3.433616E-1,3.205379E-1,-5.9579708E-2,4.122843E-1,4.0690202E-1,5.756356E-2,-5.6655128E-2,-4.7187018E-1,9.8127285E-3,5.0010324E-2,-5.987305E-2,-2.9825664E-1,-4.924289E-2,3.6547074E-1,-4.241701E-2,4.5803476E-2,2.224878E-2,5.81316E-2,-5.2570473E-2,-1.8193905E-1,-3.293221E-2,4.9825348E-2,-5.5228528E-3,-3.8591865E-2,-6.9394284E-3,-4.1292697E-2,8.07164E-3,4.1082617E-2,4.8864023E-3,4.2514514E-2],"split_indices":[17,17,17,19,19,19,0,0,17,19,19,19,19,17,2,19,17,17,17,0,17,17,0,0,2,0,0,0,2,0,17,0,0,0,0,0,19,0,0,0,0,0,0,0,0,0,0],"split_type":[0,0,0,0,0,0,0,0,0,0,0,0,0,0,0,0,0,0,0,0,0,0,0,0,0,0,0,0,0,0,0,0,0,0,0,0,0,0,0,0,0,0,0,0,0,0,0],"sum_hessian":[7.793982E3,3.9375957E3,3.8563862E3,3.6165793E3,3.2101636E2,2.4615714E2,3.6102292E3,3.2959033E3,3.2067624E2,2.1214207E2,1.0887427E2,8.354427E1,1.6261285E2,2.962122E2,2.4464054E1,1.8989821E2,2.2243874E1,2.9233994E1,7.9640274E1,5.935164E1,2.419263E1,2.1083693E1,1.4152916E2,2.8625128E2,9.960891E0,7.4111605E0,1.7052893E1,1.7949823E2,1.0399977E1,1.053636E1,1.1707515E1,8.740093E0,2.04939E1,6.5703588E0,7.3069916E1,1.3040315E1,1.1152315E1,7.4134283E0,1.3670264E1,4.6503825E0,5.3105083E0,4.996777E0,5.403199E0,6.1355414E0,5.571973E0,4.803092E0,6.3492227E0],"tree_param":{"num_deleted":"0","num_feature":"32","num_nodes":"47","size_leaf_vector":"1"}},{"base_weights":[-4.426017E-3,-1.463347E0,1.4901186E0,-1.5433551E0,-5.495885E-1,4.8919174E-1,5.63483E-2,-5.6493204E-2,-1.2702471E0,-1.4568714E0,1.2480778E0,-1.3046283E0,1.4381968E0,-1.491411E0,4.7311816E-2,-1.5854481E0,-2.7378774E-1,4.4592932E-1,1.5223029E0,-5.8136325E-2,-4.5034316E-1,5.5775887E-1,5.5958387E-2,-5.4780148E-2,-2.070568E-2,-5.8426984E-2,-8.1493795E-1,-4.795423E-2,7.6072395E-1,-4.189873E-2,4.4260092E-2,2.2315813E-2,5.6743495E-2,-5.133975E-2,7.565762E-1,-3.0378077E-2,4.8137326E-2,-6.785997E-3,-4.0335827E-2,7.878903E-3,3.912849E-2,-9.7405084E-4,4.166713E-2],"categories":[],"categories_nodes":[],"categories_segments":[],"categories_sizes":[],"default_left":[0,0,0,0,0,0,0,0,0,0,0,0,0,0,0,0,0,0,0,0,0,0,0,0,0,0,0,0,0,0,0,0,0,0,0,0,0,0,0,0,0,0,0],"id":10,"left_children":[1,3,5,7,9,11,-1,-1,13,15,17,19,21,23,-1,25,27,29,31,-1,33,35,-1,-1,-1,-1,37,-1,39,-1,-1,-1,-1,-1,41,-1,-1,-1,-1,-1,-1,-1,-1],"loss_changes":[1.675439E4,2.816289E2,2.5596191E2,1.2138672E1,5.2413086E2,4.2460513E2,0E0,0E0,1.4661493E2,3.100357E1,2.170929E1,2.0194473E1,1.2913971E1,2.199463E0,0E0,3.4191895E-1,2.9933178E1,4.435026E1,3.458557E-1,0E0,3.4968086E1,2.8098446E1,0E0,0E0,0E0,0E0,1.8889303E0,0E0,1.7754478E0,0E0,0E0,0E0,0E0,0E0,4.4579735E0,0E0,0E0,0E0,0E0,0E0,0E0,0E0,0E0],"parents":[2147483647,0,0,1,1,2,2,3,3,4,4,5,5,8,8,9,9,10,10,11,11,12,12,13,13,15,15,16,16,17,17,18,18,20,20,21,21,26,26,28,28,34,34],"right_children":[2,4,6,8,10,12,-1,-1,14,16,18,20,22,24,-1,26,28,30,32,-1,34,36,-1,-1,-1,-1,38,-1,40,-1,-1,-1,-1,-1,42,-1,-1,-1,-1,-1,-1,-1,-1],"split_conditions":[3.8261524E-1,3.150222E-1,4.2931163E-1,1.5163274E0,6.230054E-1,-5.3076837E-2,5.63483E-2,-5.6493204E-2,2.567603E-1,4.8798177E-1,8.4388614E-1,-2.894057E-1,1.3585626E-1,2.1965225E-1,4.7311816E-2,3.9609066E-1,3.5505497E-1,3.433616E-1,3.205379E-1,-5.8136325E-2,4.122843E-1,4.0690202E-1,5.5958387E-2,-5.4780148E-2,-2.070568E-2,-5.8426984E-2,-2.9825664E-1,-4.795423E-2,3.6547074E-1,-4.189873E-2,4.4260092E-2,2.2315813E-2,5.6743495E-2,-5.133975E-2,-1.8193905E-1,-3.0378077E-2,4.8137326E-2,-6.785997E-3,-4.0335827E-2,7.878903E-3,3.912849E-2,-9.7405084E-4,4.166713E-2],"split_indices":[17,17,17,19,19,19,0,0,17,19,19,19,19,17,0,19,17,17,17,0,17,17,0,0,0,0,2,0,17,0,0,0,0,0,19,0,0,0,0,0,0,0,0],"split_type":[0,0,0,0,0,0,0,0,0,0,0,0,0,0,0,0,0,0,0,0,0,0,0,0,0,0,0,0,0,0,0,0,0,0,0,0,0,0,0,0,0,0,0],"sum_hessian":[7.677784E3,3.8852285E3,3.7925557E3,3.5704558E3,3.1477258E2,2.4287857E2,3.549677E3,3.327124E3,2.4333176E2,2.0958513E2,1.0518744E2,8.36312E1,1.5924736E2,2.2531827E2,1.8013487E1,1.8808525E2,2.1499884E1,2.8881468E1,7.630598E1,5.9711975E1,2.391923E1,1.9661194E1,1.3958617E2,2.1776694E2,7.551333E0,1.7771712E2,1.036814E1,1.0223792E1,1.1276091E1,8.933191E0,1.9948277E1,5.9175506E0,7.038842E1,1.2961287E1,1.0957942E1,6.907463E0,1.2753732E1,4.9953833E0,5.372757E0,6.134497E0,5.1415935E0,4.6498194E0,6.3081226E0],"tree_param":{"num_deleted":"0","num_feature":"32","num_nodes":"43","size_leaf_vector":"1"}},{"base_weights":[-3.4979177E-3,-1.4322647E0,1.4604943E0,-1.5118897E0,-5.277344E-1,4.9455962E-1,5.524449E-2,-5.549068E-2,-1.2691226E0,-1.4208256E0,1.2221022E0,-1.2549866E0,1.3899021E0,-1.4790535E0,1.0789232E0,-5.598617E-2,-2.6141274E-1,4.7368947E-1,1.4760563E0,-5.6738492E-2,-4.2777246E-1,3.5765707E-1,5.4473456E-2,-7.2901046E-1,-1.4984547E0,9.179212E-3,4.8411116E-2,-4.684154E-2,7.485827E-1,-4.0980175E-2,4.5007568E-2,2.1176232E-2,5.5382606E-2,-5.0525405E-2,7.7023983E-1,-4.420913E-2,4.6521235E-2,-6.49723E-3,-3.575664E-2,-5.4701325E-2,-2.3918318E-2,7.6909214E-3,3.8604144E-2,2.2992326E-3,4.0858477E-2],"categories":[],"categories_nodes":[],"categories_segments":[],"categories_sizes":[],"default_left":[0,0,0,0,0,0,0,0,0,0,0,0,0,0,0,0,0,0,0,0,0,0,0,0,0,0,0,0,0,0,0,0,0,0,0,0,0,0,0,0,0,0,0,0,0],"id":11,"left_children":[1,3,5,7,9,11,-1,-1,13,15,17,19,21,23,25,-1,27,29,31,-1,33,35,-1,37,39,-1,-1,-1,41,-1,-1,-1,-1,-1,43,-1,-1,-1,-1,-1,-1,-1,-1,-1,-1],"loss_changes":[1.5830694E4,2.7338232E2,2.3992773E2,1.316748E1,4.971706E2,3.9298093E2,0E0,0E0,1.6103326E2,2.9696655E1,1.835138E1,2.0083832E1,1.8159119E1,8.470459E-1,4.8960648E0,0E0,2.859788E1,4.3963966E1,1.1108704E0,0E0,3.559944E1,3.5439465E1,0E0,1.3622723E0,2.140503E-1,0E0,0E0,0E0,1.748004E0,0E0,0E0,0E0,0E0,0E0,3.442112E0,0E0,0E0,0E0,0E0,0E0,0E0,0E0,0E0,0E0,0E0],"parents":[2147483647,0,0,1,1,2,2,3,3,4,4,5,5,8,8,9,9,10,10,11,11,12,12,13,13,14,14,16,16,17,17,18,18,20,20,21,21,23,23,24,24,28,28,34,34],"right_children":[2,4,6,8,10,12,-1,-1,14,16,18,20,22,24,26,-1,28,30,32,-1,34,36,-1,38,40,-1,-1,-1,42,-1,-1,-1,-1,-1,44,-1,-1,-1,-1,-1,-1,-1,-1,-1,-1],"split_conditions":[3.8261524E-1,3.150222E-1,4.2931163E-1,1.330405E0,6.230054E-1,-5.3076837E-2,5.524449E-2,-5.549068E-2,2.567603E-1,4.8798177E-1,8.4388614E-1,-2.894057E-1,1.1160329E-1,-7.2001475E-1,-6.393458E-1,-5.598617E-2,3.5505497E-1,3.433616E-1,3.205379E-1,-5.6738492E-2,4.122843E-1,4.0690202E-1,5.4473456E-2,-1.7237563E-1,2.2995168E-1,9.179212E-3,4.8411116E-2,-4.684154E-2,3.6547074E-1,-4.0980175E-2,4.5007568E-2,2.1176232E-2,5.5382606E-2,-5.0525405E-2,-1.8193905E-1,-4.420913E-2,4.6521235E-2,-6.49723E-3,-3.575664E-2,-5.4701325E-2,-2.3918318E-2,7.6909214E-3,3.8604144E-2,2.2992326E-3,4.0858477E-2],"split_indices":[17,17,17,19,19,19,0,0,17,19,19,19,19,2,2,0,17,17,17,0,17,17,0,18,17,0,0,0,17,0,0,0,0,0,19,0,0,0,0,0,0,0,0,0,0],"split_type":[0,0,0,0,0,0,0,0,0,0,0,0,0,0,0,0,0,0,0,0,0,0,0,0,0,0,0,0,0,0,0,0,0,0,0,0,0,0,0,0,0,0,0,0,0],"sum_hessian":[7.5620996E3,3.8271262E3,3.7349734E3,3.5155635E3,3.1156256E2,2.4429414E2,3.4906792E3,3.202069E3,3.1349445E2,2.0666776E2,1.0489481E2,8.22746E1,1.6201953E2,2.8882394E2,2.4670506E1,1.8528404E2,2.1383718E1,2.8835752E1,7.605906E1,5.76177E1,2.46569E1,1.7699877E1,1.4431966E2,1.0310951E1,2.78513E2,7.3802614E0,1.7290243E1,1.0132655E1,1.1251063E1,8.873981E0,1.9961771E1,6.561098E0,6.949796E1,1.3343242E1,1.1313659E1,6.187667E0,1.151221E1,5.0006986E0,5.3102527E0,2.7142206E2,7.0909443E0,6.133287E0,5.117776E0,5.0508895E0,6.2627687E0],"tree_param":{"num_deleted":"0","num_feature":"32","num_nodes":"45","size_leaf_vector":"1"}},{"base_weights":[1.5781432E-3,-1.402356E0,1.4330949E0,-1.4825362E0,-5.089544E-1,4.7207993E-1,5.421878E-2,-5.442645E-2,-1.2407793E0,-1.3955438E0,1.1996613E0,-1.2356335E0,1.3625381E0,-5.2456845E-2,1.1044551E0,-1.5137404E0,-2.923839E-1,4.5965073E-1,1.4458345E0,-5.5560898E-2,-3.6598173E-1,6.82555E-1,5.4986328E-2,1.0329827E-2,4.6994943E-2,-5.583907E-2,-7.7540076E-1,-4.1572794E-2,3.0427543E-2,-4.010366E-2,4.3905452E-2,1.8730924E-2,5.4290727E-2,-4.8262395E-2,7.820678E-1,-3.5122097E-2,1.1487148E0,-3.492886E-3,-3.987949E-2,4.7512846E-3,3.9263804E-2,1.1468263E-2,4.9425215E-2],"categories":[],"categories_nodes":[],"categories_segments":[],"categories_sizes":[],"default_left":[0,0,0,0,0,0,0,0,0,0,0,0,0,0,0,0,0,0,0,0,0,0,0,0,0,0,0,0,0,0,0,0,0,0,0,0,0,0,0,0,0,0,0],"id":12,"left_children":[1,3,5,7,9,11,-1,-1,13,15,17,19,21,-1,23,25,27,29,31,-1,33,35,-1,-1,-1,-1,37,-1,-1,-1,-1,-1,-1,-1,39,-1,41,-1,-1,-1,-1,-1,-1],"loss_changes":[1.4915916E4,2.660586E2,2.3135889E2,1.2829102E1,4.798533E2,3.719577E2,0E0,0E0,1.5727872E2,2.5707306E1,1.773552E1,2.0290558E1,1.3948425E1,0E0,3.185276E0,4.524231E-1,2.629749E1,4.1706284E1,1.697052E0,0E0,3.1873903E1,3.1073614E1,0E0,0E0,0E0,0E0,2.6946888E0,0E0,0E0,0E0,0E0,0E0,0E0,0E0,2.2710962E0,0E0,3.9717102E0,0E0,0E0,0E0,0E0,0E0,0E0],"parents":[2147483647,0,0,1,1,2,2,3,3,4,4,5,5,8,8,9,9,10,10,11,11,12,12,14,14,15,15,16,16,17,17,18,18,20,20,21,21,26,26,34,34,36,36],"right_children":[2,4,6,8,10,12,-1,-1,14,16,18,20,22,-1,24,26,28,30,32,-1,34,36,-1,-1,-1,-1,38,-1,-1,-1,-1,-1,-1,-1,40,-1,42,-1,-1,-1,-1,-1,-1],"split_conditions":[3.8261524E-1,3.150222E-1,4.2931163E-1,1.330405E0,6.230054E-1,-5.3076837E-2,5.421878E-2,-5.442645E-2,2.567603E-1,4.8798177E-1,8.4388614E-1,-2.894057E-1,2.2281115E-1,-5.2456845E-2,1.5163274E0,3.9609066E-1,3.593471E-1,3.433616E-1,3.205379E-1,-5.5560898E-2,4.122843E-1,3.9449912E-1,5.4986328E-2,1.0329827E-2,4.6994943E-2,-5.583907E-2,-2.9825664E-1,-4.1572794E-2,3.0427543E-2,-4.010366E-2,4.3905452E-2,1.8730924E-2,5.4290727E-2,-4.8262395E-2,-1.8193905E-1,-3.5122097E-2,4.0690202E-1,-3.492886E-3,-3.987949E-2,4.7512846E-3,3.9263804E-2,1.1468263E-2,4.9425215E-2],"split_indices":[17,17,17,19,19,19,0,0,17,19,19,19,19,0,19,19,17,17,17,0,17,17,0,0,0,0,2,0,0,0,0,0,0,0,19,0,17,0,0,0,0,0,0],"split_type":[0,0,0,0,0,0,0,0,0,0,0,0,0,0,0,0,0,0,0,0,0,0,0,0,0,0,0,0,0,0,0,0,0,0,0,0,0,0,0,0,0,0,0],"sum_hessian":[7.415531E3,3.7438657E3,3.671665E3,3.4336519E3,3.1021368E2,2.3804419E2,3.4336208E3,3.1271501E3,3.065019E2,2.0461223E2,1.0560145E2,8.117004E1,1.5687415E2,2.824321E2,2.4069805E1,1.8376425E2,2.0847979E1,2.8588837E1,7.701261E1,5.8540817E1,2.262922E1,3.2688797E1,1.2418535E2,6.1062446E0,1.796356E1,1.7325781E2,1.0506441E1,1.1847415E1,9.000563E0,8.809224E0,1.9779612E1,6.1533747E0,7.085924E1,1.1999862E1,1.0629358E1,6.446463E0,2.6242334E1,4.7298365E0,5.7766047E0,4.8011837E0,5.8281746E0,7.037146E0,1.9205189E1],"tree_param":{"num_deleted":"0","num_feature":"32","num_nodes":"43","size_leaf_vector":"1"}},{"base_weights":[-1.0815625E-3,4.211439E-1,-8.7040645E-1,-9.189464E-1,8.5718876E-1,1.2313616E0,-1.2181138E0,-1.1415156E0,1.2385113E0,9.449357E-1,-7.61629E-1,5.2066352E-2,3.9674503E-1,-6.2266415E-1,-1.3673022E0,-1.2978069E0,4.8705432E-1,3.0570957E-1,1.3313895E0,1.0994667E0,3.0108738E-1,1.0985446E0,-1.0807023E0,1.2746593E0,-8.843969E-1,-1.1336734E0,3.6353344E-1,-4.3190667E-1,-1.4050473E0,-7.190524E-1,-1.3533381E0,-1.100751E-1,4.465598E-2,-1.0879129E-2,2.4964191E-2,6.670395E-1,5.0995335E-2,4.954243E-1,1.1900246E0,-2.5275818E-1,9.1268337E-1,4.4188585E-2,1.6327718E-2,-4.293024E-1,-1.3200037E0,4.963992E-2,1.773235E-2,-4.7043983E-2,-7.0663025E-3,3.1006473E-1,-1.2907535E0,7.690821E-1,-1.1409974E0,8.381825E-1,-1.1787724E0,-1.4269954E0,-9.053571E-1,1.2945551E-2,-3.77209E-2,-4.93486E-2,-5.434586E-3,-2.0842038E-2,2.3705184E-2,-5.914146E-3,3.8615745E-2,2.9047534E-2,-2.0441832E-2,2.9485745E-2,4.697512E-2,2.4516748E-2,-2.0451313E-2,4.3991882E-2,-5.0707324E-4,2.1191172E-2,-2.7070427E-2,-4.940239E-2,-2.1867685E-2,1.1351999E-2,-1.14700785E-2,-1.891992E-2,3.1510465E-2,-4.9822252E-2,-1.4251944E-2,1.2497277E-3,3.4777407E-2,-8.507697E-3,-4.7695562E-2,4.1506737E-2,7.88797E-3,-4.6440747E-2,-1.3380398E-2,-4.3733187E-2,-5.256982E-2,-1.240093E-2,-4.8038818E-2],"categories":[],"categories_nodes":[],"categories_segments":[],"categories_sizes":[],"default_left":[0,0,0,0,0,0,0,0,0,0,0,0,0,0,0,0,0,0,0,0,0,0,0,0,0,0,0,0,0,0,0,0,0,0,0,0,0,0,0,0,0,0,0,0,0,0,0,0,0,0,0,0,0,0,0,0,0,0,0,0,0,0,0,0,0,0,0,0,0,0,0,0,0,0,0,0,0,0,0,0,0,0,0,0,0,0,0,0,0,0,0,0,0,0,0],"id":13,"left_children":[1,3,5,7,9,11,13,15,17,19,21,-1,23,25,27,29,31,33,35,37,39,41,43,45,47,49,51,53,55,57,59,61,-1,-1,-1,63,-1,65,67,69,71,-1,-1,73,75,-1,-1,-1,77,79,81,83,85,87,89,91,93,-1,-1,-1,-1,-1,-1,-1,-1,-1,-1,-1,-1,-1,-1,-1,-1,-1,-1,-1,-1,-1,-1,-1,-1,-1,-1,-1,-1,-1,-1,-1,-1,-1,-1,-1,-1,-1,-1],"loss_changes":[2.6786008E3,2.8726907E3,1.7481334E3,5.841722E2,5.2889966E2,5.7380554E1,1.7933545E2,2.8096057E2,8.644287E0,3.490315E2,1.1786911E2,0E0,8.47823E1,2.110072E2,5.585669E1,2.914038E1,4.428961E1,4.0058165E0,2.4634247E0,1.5330786E2,2.3284845E2,6.533165E-1,2.40755E1,1.2968979E0,1.1377869E1,6.3582733E1,9.083619E1,6.751711E1,1.320459E1,3.405974E1,1.1648682E1,2.1693514E1,0E0,0E0,0E0,6.145868E0,0E0,1.23869576E2,9.726318E1,1.0658104E2,9.191733E1,0E0,0E0,1.7295715E1,1.3719788E0,0E0,0E0,0E0,1.6217681E0,1.5206654E1,1.7674896E1,1.624707E1,4.174759E0,4.3980865E0,2.277111E0,3.2219238E0,1.633163E1,0E0,0E0,0E0,0E0,0E0,0E0,0E0,0E0,0E0,0E0,0E0,0E0,0E0,0E0,0E0,0E0,0E0,0E0,0E0,0E0,0E0,0E0,0E0,0E0,0E0,0E0,0E0,0E0,0E0,0E0,0E0,0E0,0E0,0E0,0E0,0E0,0E0,0E0],"parents":[2147483647,0,0,1,1,2,2,3,3,4,4,5,5,6,6,7,7,8,8,9,9,10,10,12,12,13,13,14,14,15,15,16,16,17,17,18,18,19,19,20,20,21,21,22,22,23,23,24,24,25,25,26,26,27,27,28,28,29,29,30,30,31,31,35,35,37,37,38,38,39,39,40,40,43,43,44,44,48,48,49,49,50,50,51,51,52,52,53,53,54,54,55,55,56,56],"right_children":[2,4,6,8,10,12,14,16,18,20,22,-1,24,26,28,30,32,34,36,38,40,42,44,46,48,50,52,54,56,58,60,62,-1,-1,-1,64,-1,66,68,70,72,-1,-1,74,76,-1,-1,-1,78,80,82,84,86,88,90,92,94,-1,-1,-1,-1,-1,-1,-1,-1,-1,-1,-1,-1,-1,-1,-1,-1,-1,-1,-1,-1,-1,-1,-1,-1,-1,-1,-1,-1,-1,-1,-1,-1,-1,-1,-1,-1,-1,-1],"split_conditions":[3.97908E-1,-5.627334E-1,-7.226453E-1,5.9357595E-1,2.5540223E0,-7.305368E-1,5.263811E-1,1.23491906E-1,-4.2734757E-1,1.7419358E-1,-3.598107E-1,5.2066352E-2,1.5100259E0,2.0540483E-1,-7.1124643E-1,-8.796568E-1,8.028828E-1,-1.0812162E-1,1.0853062E0,-4.861743E-1,-1.1276229E-1,-3.981839E-1,2.802545E-1,1.3435513E0,5.6509626E-1,-6.4670414E-1,2.1823347E-1,1.0521106E0,1.7076141E0,-3.9206213E-1,4.4328815E-1,-7.175412E-1,4.465598E-2,-1.0879129E-2,2.4964191E-2,-7.610279E-1,5.0995335E-2,3E0,-3.836162E-1,-3.5213608E-1,4.4365498E-1,4.4188585E-2,1.6327718E-2,2.6430337E0,3.3687824E-1,4.963992E-2,1.773235E-2,-4.7043983E-2,6E0,3.4488555E-2,6.76745E-1,-8.293792E-2,-4.534566E-1,8.8770986E-1,1.6409459E0,5.9393865E-1,7.833213E-1,1.2945551E-2,-3.77209E-2,-4.93486E-2,-5.434586E-3,-2.0842038E-2,2.3705184E-2,-5.914146E-3,3.8615745E-2,2.9047534E-2,-2.0441832E-2,2.9485745E-2,4.697512E-2,2.4516748E-2,-2.0451313E-2,4.3991882E-2,-5.0707324E-4,2.1191172E-2,-2.7070427E-2,-4.940239E-2,-2.1867685E-2,1.1351999E-2,-1.14700785E-2,-1.891992E-2,3.1510465E-2,-4.9822252E-2,-1.4251944E-2,1.2497277E-3,3.4777407E-2,-8.507697E-3,-4.7695562E-2,4.1506737E-2,7.88797E-3,-4.6440747E-2,-1.3380398E-2,-4.3733187E-2,-5.256982E-2,-1.240093E-2,-4.8038818E-2],"split_indices":[10,11,2,13,11,2,10,14,3,10,3,0,10,13,2,20,14,14,13,4,13,3,3,10,19,9,11,10,14,4,5,11,0,0,0,11,0,25,14,3,11,0,0,11,14,0,0,0,27,14,14,14,2,10,14,10,10,0,0,0,0,0,0,0,0,0,0,0,0,0,0,0,0,0,0,0,0,0,0,0,0,0,0,0,0,0,0,0,0,0,0,0,0,0,0],"split_type":[0,0,0,0,0,0,0,0,0,0,0,0,0,0,0,0,0,0,0,0,0,0,0,0,0,0,0,0,0,0,0,0,0,0,0,0,0,0,0,0,0,0,0,0,0,0,0,0,0,0,0,0,0,0,0,0,0,0,0,0,0,0,0,0,0,0,0,0,0,0,0,0,0,0,0,0,0,0,0,0,0,0,0,0,0,0,0,0,0,0,0,0,0,0,0],"sum_hessian":[7.291401E3,4.9088228E3,2.3825781E3,1.2042797E3,3.704543E3,3.3708792E2,2.0454902E3,1.09299E3,1.1128966E2,3.515295E3,1.8924814E2,2.679421E2,6.914581E1,4.130419E2,1.6324482E3,9.978594E2,9.51306E1,1.1287527E1,1.0000213E2,2.8331123E3,6.821827E2,2.6595034E1,1.626531E2,4.103913E1,2.8106686E1,2.7176056E2,1.4128134E2,6.48201E1,1.5676282E3,9.116407E1,9.0669525E2,5.436872E1,4.0761883E1,4.6430693E0,6.644458E0,1.3717548E1,8.628458E1,3.7199146E2,2.4611208E3,3.589519E2,3.2323077E2,2.0014175E1,6.580858E0,4.6036556E1,1.16616554E2,3.440661E1,6.63252E0,1.8040487E1,1.0066199E1,2.6368923E1,2.4539165E2,1.1248325E2,2.8798082E1,2.3861515E1,4.0958584E1,1.4961348E3,7.149338E1,2.1006546E1,7.0157524E1,8.978992E2,8.79612E0,3.4268356E1,2.0100363E1,5.064312E0,8.653236E0,2.8891138E2,8.3080086E1,5.60196E2,1.9009248E3,8.937003E1,2.6958185E2,2.4270316E2,8.052764E1,1.0390397E1,3.564616E1,1.0690269E2,9.713865E0,4.9276705E0,5.1385283E0,1.0697964E1,1.5670959E1,2.2218651E2,2.3205133E1,2.4126646E1,8.8356606E1,5.913751E0,2.288433E1,1.414884E1,9.712674E0,3.461787E1,6.340716E0,1.7886516E2,1.3172697E3,3.3107525E1,3.838585E1],"tree_param":{"num_deleted":"0","num_feature":"32","num_nodes":"95","size_leaf_vector":"1"}},{"base_weights":[1.6094092E-3,-1.3591251E0,1.3899202E0,-1.437344E0,-4.9913892E-1,4.6410653E-1,5.262255E-2,-5.2785743E-2,-1.1978886E0,-1.4468697E0,1.0308194E0,-1.1585591E0,1.3594E0,-1.4023583E0,1.0221679E0,-5.4823454E-2,-6.864558E-1,3.0427176E-1,1.4087318E0,-5.4551736E-2,-3.503827E-1,5.065912E-1,5.2517373E-2,-2.3719791E-2,-1.422115E0,8.559999E-3,4.6172053E-2,-8.953346E-1,8.501316E-4,-1.0042281E0,4.582202E-2,1.7517472E-2,5.3042114E-2,-4.7565978E-2,7.980633E-1,-2.6514458E-2,4.3977242E-2,-5.194513E-2,-2.2835704E-2,-1.003962E-2,-4.07669E-2,-4.868065E-2,-7.1466067E-3,1.6322852E-3,4.1197836E-2],"categories":[],"categories_nodes":[],"categories_segments":[],"categories_sizes":[],"default_left":[0,0,0,0,0,0,0,0,0,0,0,0,0,0,0,0,0,0,0,0,0,0,0,0,0,0,0,0,0,0,0,0,0,0,0,0,0,0,0,0,0,0,0,0,0],"id":14,"left_children":[1,3,5,7,9,11,-1,-1,13,15,17,19,21,23,25,-1,27,29,31,-1,33,35,-1,-1,37,-1,-1,39,-1,41,-1,-1,-1,-1,43,-1,-1,-1,-1,-1,-1,-1,-1,-1,-1],"loss_changes":[1.3600409E4,2.4233447E2,2.129165E2,1.2312988E1,4.5107635E2,3.520149E2,0E0,0E0,1.4096216E2,6.8150635E0,3.1500534E1,2.2852066E1,1.0006714E1,1.1759033E0,4.489771E0,0E0,3.273388E0,6.0513992E1,1.9569397E0,0E0,3.676745E1,2.0393785E1,0E0,0E0,1.8206787E-1,0E0,0E0,1.4316797E0,0E0,4.8979435E0,0E0,0E0,0E0,0E0,3.8826036E0,0E0,0E0,0E0,0E0,0E0,0E0,0E0,0E0,0E0,0E0],"parents":[2147483647,0,0,1,1,2,2,3,3,4,4,5,5,8,8,9,9,10,10,11,11,12,12,13,13,14,14,16,16,17,17,18,18,20,20,21,21,24,24,27,27,29,29,34,34],"right_children":[2,4,6,8,10,12,-1,-1,14,16,18,20,22,24,26,-1,28,30,32,-1,34,36,-1,-1,38,-1,-1,40,-1,42,-1,-1,-1,-1,44,-1,-1,-1,-1,-1,-1,-1,-1,-1,-1],"split_conditions":[3.8261524E-1,3.150222E-1,4.2931163E-1,1.330405E0,5.429266E-1,-2.3862522E-2,5.262255E-2,-5.2785743E-2,2.567603E-1,3.9609066E-1,8.4388614E-1,-2.894057E-1,1.3585626E-1,-7.2001475E-1,-6.393458E-1,-5.4823454E-2,9E0,3.4845543E-1,3.205379E-1,-5.4551736E-2,4.122843E-1,4.0690202E-1,5.2517373E-2,-2.3719791E-2,2.2995168E-1,8.559999E-3,4.6172053E-2,-4.235929E-1,8.501316E-4,7.289401E-1,4.582202E-2,1.7517472E-2,5.3042114E-2,-4.7565978E-2,-1.8193905E-1,-2.6514458E-2,4.3977242E-2,-5.194513E-2,-2.2835704E-2,-1.003962E-2,-4.07669E-2,-4.868065E-2,-7.1466067E-3,1.6322852E-3,4.1197836E-2],"split_indices":[17,17,17,19,19,19,0,0,17,19,19,19,19,2,2,0,27,17,17,0,17,17,0,0,17,0,0,13,0,19,0,0,0,0,19,0,0,0,0,0,0,0,0,0,0],"split_type":[0,0,0,0,0,0,0,0,0,0,0,0,0,0,0,0,0,0,0,0,0,0,0,0,0,0,0,0,0,0,0,0,0,0,0,0,0,0,0,0,0,0,0,0,0],"sum_hessian":[7.193099E3,3.6326604E3,3.5604387E3,3.327887E3,3.0477347E2,2.3581845E2,3.3246204E3,3.030298E3,2.975888E2,1.8830022E2,1.1647325E2,8.352283E1,1.5229562E2,2.7354205E2,2.4046747E1,1.6978232E2,1.8517908E1,4.177668E1,7.469657E1,5.640567E1,2.7117157E1,1.6917315E1,1.3537831E2,9.798564E0,2.6374347E2,7.356379E0,1.6690369E1,1.3680129E1,4.8377786E0,1.765199E1,2.4124691E1,6.1266265E0,6.856995E1,1.4490452E1,1.2626705E1,6.119465E0,1.0797849E1,2.565778E2,7.1657023E0,5.6014743E0,8.078654E0,1.0935032E1,6.7169595E0,5.0361814E0,7.590524E0],"tree_param":{"num_deleted":"0","num_feature":"32","num_nodes":"45","size_leaf_vector":"1"}},{"base_weights":[6.8775575E-5,-1.3373202E0,1.3673989E0,-1.4142746E0,-4.9186328E-1,4.5117903E-1,5.177673E-2,-5.193448E-2,-1.1804864E0,-1.4049964E0,1.0096574E0,-1.1411073E0,1.3246332E0,-1.378612E0,9.841134E-1,-1.4559842E0,-1.0517552E-2,2.5515747E-1,5.043351E-2,-5.3357612E-2,-3.7809688E-1,6.844724E-1,5.2642737E-2,-6.7003196E-1,-1.3981295E0,4.0121106E-3,4.5303516E-2,-5.4324776E-2,-9.0683764E-1,-9.822389E-1,4.514178E-2,-4.6692993E-2,7.581779E-1,-3.270186E-2,4.1146465E-2,-5.5815624E-3,-3.3631742E-2,-5.1074915E-2,-2.302249E-2,-1.1125043E-2,-4.448486E-2,-4.729079E-2,-8.2340455E-3,1.5959368E-3,3.9642457E-2],"categories":[],"categories_nodes":[],"categories_segments":[],"categories_sizes":[],"default_left":[0,0,0,0,0,0,0,0,0,0,0,0,0,0,0,0,0,0,0,0,0,0,0,0,0,0,0,0,0,0,0,0,0,0,0,0,0,0,0,0,0,0,0,0,0],"id":15,"left_children":[1,3,5,7,9,11,-1,-1,13,15,17,19,21,23,25,27,-1,29,-1,-1,31,33,-1,35,37,-1,-1,-1,39,41,-1,-1,43,-1,-1,-1,-1,-1,-1,-1,-1,-1,-1,-1,-1],"loss_changes":[1.2894155E4,2.2975342E2,2.0341211E2,1.1359375E1,4.1870523E2,3.2904767E2,0E0,0E0,1.31142E2,9.429718E0,3.2602356E1,1.9762276E1,9.649628E0,8.5076904E-1,5.8135147E0,3.2687378E-1,0E0,5.668581E1,0E0,0E0,3.4030556E1,2.6037285E1,0E0,1.3334355E0,3.0578613E-2,0E0,0E0,0E0,3.0499153E0,4.204439E0,0E0,0E0,3.5340147E0,0E0,0E0,0E0,0E0,0E0,0E0,0E0,0E0,0E0,0E0,0E0,0E0],"parents":[2147483647,0,0,1,1,2,2,3,3,4,4,5,5,8,8,9,9,10,10,11,11,12,12,13,13,14,14,15,15,17,17,20,20,21,21,23,23,24,24,28,28,29,29,32,32],"right_children":[2,4,6,8,10,12,-1,-1,14,16,18,20,22,24,26,28,-1,30,-1,-1,32,34,-1,36,38,-1,-1,-1,40,42,-1,-1,44,-1,-1,-1,-1,-1,-1,-1,-1,-1,-1,-1,-1],"split_conditions":[3.8261524E-1,3.150222E-1,4.2931163E-1,1.330405E0,5.429266E-1,-2.3862522E-2,5.177673E-2,-5.193448E-2,2.567603E-1,4.8798177E-1,8.4388614E-1,-2.894057E-1,2.2281115E-1,-7.2001475E-1,-6.393458E-1,3.2411432E-1,-1.0517552E-2,3.4845543E-1,5.043351E-2,-5.3357612E-2,4.122843E-1,3.9449912E-1,5.2642737E-2,-1.7237563E-1,2.2995168E-1,4.0121106E-3,4.5303516E-2,-5.4324776E-2,-2.754589E-1,7.289401E-1,4.514178E-2,-4.6692993E-2,-1.8193905E-1,-3.270186E-2,4.1146465E-2,-5.5815624E-3,-3.3631742E-2,-5.1074915E-2,-2.302249E-2,-1.1125043E-2,-4.448486E-2,-4.729079E-2,-8.2340455E-3,1.5959368E-3,3.9642457E-2],"split_indices":[17,17,17,19,19,19,0,0,17,19,19,19,19,2,2,19,0,17,0,0,17,17,0,18,17,0,0,0,2,19,0,0,19,0,0,0,0,0,0,0,0,0,0,0,0],"split_type":[0,0,0,0,0,0,0,0,0,0,0,0,0,0,0,0,0,0,0,0,0,0,0,0,0,0,0,0,0,0,0,0,0,0,0,0,0,0,0,0,0,0,0,0,0],"sum_hessian":[7.0449526E3,3.5615044E3,3.4834482E3,3.2624575E3,2.9904684E2,2.3009326E2,3.253355E3,2.9696304E3,2.928271E2,1.860828E2,1.1296403E2,8.116936E1,1.489239E2,2.693079E2,2.3519188E1,1.7702634E2,9.056463E0,3.9909706E1,7.305432E1,5.4418827E1,2.6750532E1,2.8593601E1,1.203303E2,1.0167728E1,2.5914017E2,6.5677795E0,1.6951408E1,1.5831052E2,1.8715813E1,1.7784235E1,2.2125471E1,1.4597013E1,1.2153519E1,5.659646E0,2.2933956E1,5.07048E0,5.097249E0,2.5179434E2,7.3458166E0,8.687543E0,1.002827E1,1.0830847E1,6.953388E0,5.035528E0,7.117991E0],"tree_param":{"num_deleted":"0","num_feature":"32","num_nodes":"45","size_leaf_vector":"1"}},{"base_weights":[-1.8022376E-3,-1.3053473E0,1.3554718E0,-1.3917114E0,-4.461738E-1,4.771293E-1,5.099192E-2,-5.102167E-2,-1.1141558E0,-1.3549011E0,1.0143824E0,-1.1012018E0,1.3168066E0,-1.3347338E0,4.312577E-2,-5.2566014E-2,-4.3183547E-1,3.66611E-1,1.3359675E0,-5.2017134E-2,-2.1334134E-1,5.606222E-1,5.1707216E-2,-4.91849E-2,-1.4087414E-2,-4.1874193E-2,3.671663E-2,-1.0609028E0,4.4819087E-2,1.662251E-2,5.0412003E-2,-4.3898072E-2,7.4767643E-1,-2.7271625E-2,4.4260304E-2,-4.691686E-2,-9.592791E-3,4.2030616E-3,3.759258E-2],"categories":[],"categories_nodes":[],"categories_segments":[],"categories_sizes":[],"default_left":[0,0,0,0,0,0,0,0,0,0,0,0,0,0,0,0,0,0,0,0,0,0,0,0,0,0,0,0,0,0,0,0,0,0,0,0,0,0,0],"id":16,"left_children":[1,3,5,7,9,11,-1,-1,13,15,17,19,21,23,-1,-1,25,27,29,-1,31,33,-1,-1,-1,-1,-1,35,-1,-1,-1,-1,37,-1,-1,-1,-1,-1,-1],"loss_changes":[1.2234952E4,2.5980957E2,1.6017432E2,1.2104004E1,4.379897E2,2.7320895E2,0E0,0E0,1.1751883E2,1.65065E1,2.4954514E1,2.062732E1,8.931305E0,3.2149658E0,0E0,0E0,2.8880728E1,6.1974678E1,2.262741E0,0E0,2.5420506E1,2.2500017E1,0E0,0E0,0E0,0E0,0E0,2.559948E0,0E0,0E0,0E0,0E0,2.1875763E0,0E0,0E0,0E0,0E0,0E0,0E0],"parents":[2147483647,0,0,1,1,2,2,3,3,4,4,5,5,8,8,9,9,10,10,11,11,12,12,13,13,16,16,17,17,18,18,20,20,21,21,27,27,32,32],"right_children":[2,4,6,8,10,12,-1,-1,14,16,18,20,22,24,-1,-1,26,28,30,-1,32,34,-1,-1,-1,-1,-1,36,-1,-1,-1,-1,38,-1,-1,-1,-1,-1,-1],"split_conditions":[3.8840878E-1,3.150222E-1,4.2931163E-1,1.5163274E0,5.429266E-1,-5.3076837E-2,5.099192E-2,-5.102167E-2,2.567603E-1,3.9609066E-1,8.1430775E-1,-2.894057E-1,1.3585626E-1,2.1965225E-1,4.312577E-2,-5.2566014E-2,3.6547074E-1,3.4845543E-1,3.205379E-1,-5.2017134E-2,4.122843E-1,4.0690202E-1,5.1707216E-2,-4.91849E-2,-1.4087414E-2,-4.1874193E-2,3.671663E-2,7.289401E-1,4.4819087E-2,1.662251E-2,5.0412003E-2,-4.3898072E-2,-1.8193905E-1,-2.7271625E-2,4.4260304E-2,-4.691686E-2,-9.592791E-3,4.2030616E-3,3.759258E-2],"split_indices":[17,17,17,19,19,19,0,0,17,19,19,19,19,17,0,0,17,17,17,0,17,17,0,0,0,0,0,19,0,0,0,0,19,0,0,0,0,0,0],"split_type":[0,0,0,0,0,0,0,0,0,0,0,0,0,0,0,0,0,0,0,0,0,0,0,0,0,0,0,0,0,0,0,0,0,0,0,0,0,0,0],"sum_hessian":[6.909035E3,3.524334E3,3.384701E3,3.200673E3,3.2366095E2,1.9963036E2,3.1850706E3,2.9825522E3,2.1812082E2,1.996612E2,1.2399976E2,6.8986855E1,1.306435E2,2.0028047E2,1.7840345E1,1.7877042E2,2.0890768E1,4.3347515E1,8.0652245E1,4.860097E1,2.0385887E1,1.9394445E1,1.1124905E2,1.937278E2,6.5526686E0,1.432555E1,6.5652184E0,1.6191341E1,2.7156172E1,6.7316265E0,7.392062E1,9.586424E0,1.0799462E1,6.360232E0,1.3034213E1,1.096889E1,5.2224517E0,4.789359E0,6.0101037E0],"tree_param":{"num_deleted":"0","num_feature":"32","num_nodes":"39","size_leaf_vector":"1"}},{"base_weights":[-1.2292413E-3,3.9488298E-1,-8.097239E-1,-1.1442044E0,6.441488E-1,1.0678389E0,-1.1229422E0,-4.9140856E-2,-5.579892E-1,4.1062492E-1,1.1146581E0,4.8223544E-2,2.354768E-1,-5.533544E-1,-1.2770694E0,2.952263E-1,-9.967632E-1,8.7133646E-1,1.3564605E-1,7.817043E-1,1.2281365E0,1.0636783E0,-4.332181E-2,-1.0143746E0,3.5285375E-1,-5.543814E-1,-1.3167707E0,7.655636E-1,-7.5676394E-1,-4.9049184E-1,-1.1442587E0,1.0809952E0,-6.52928E-1,3.203868E-1,-5.669296E-1,2.9511863E-1,1.1448234E0,1.2876508E0,7.6058376E-1,4.5784675E-2,2.457838E-1,3.8277125E-1,-1.1717439E0,-3.2292125E-1,7.3303163E-1,8.145091E-1,-4.4654913E-2,-9.8946726E-1,-1.3399359E0,5.5226292E-3,3.0554553E-2,-5.07354E-3,-3.288025E-2,-3.1309154E-2,1.3322844E-2,-1.7635887E-2,-4.359267E-2,4.205404E-2,-3.116911E-3,-5.55183E-3,-3.835645E-2,-1.3672702E-3,2.450905E-2,3.9856058E-2,-2.4399953E-2,3.440598E-2,1.5649236E-3,4.357433E-2,1.1625607E-2,4.18797E-2,4.9186245E-2,4.9751266E-3,3.755427E-2,-2.8472133E-3,1.6226415E-2,2.4484178E-2,-7.7068517E-3,-4.3809675E-2,-5.864924E-3,1.5727559E-3,-3.6702648E-2,8.956728E-3,3.5038725E-2,4.045676E-2,6.1350036E-3,1.622655E-2,-4.6548426E-2,-4.039297E-2,-4.954268E-2],"categories":[],"categories_nodes":[],"categories_segments":[],"categories_sizes":[],"default_left":[0,0,0,0,0,0,0,0,0,0,0,0,0,0,0,0,0,0,0,0,0,0,0,0,0,0,0,0,0,0,0,0,0,0,0,0,0,0,0,0,0,0,0,0,0,0,0,0,0,0,0,0,0,0,0,0,0,0,0,0,0,0,0,0,0,0,0,0,0,0,0,0,0,0,0,0,0,0,0,0,0,0,0,0,0,0,0,0,0],"id":17,"left_children":[1,3,5,7,9,11,13,-1,15,17,19,-1,21,23,25,27,29,31,33,35,37,39,-1,41,43,45,47,49,51,53,55,57,59,61,63,65,67,69,71,-1,73,75,77,79,81,83,-1,85,87,-1,-1,-1,-1,-1,-1,-1,-1,-1,-1,-1,-1,-1,-1,-1,-1,-1,-1,-1,-1,-1,-1,-1,-1,-1,-1,-1,-1,-1,-1,-1,-1,-1,-1,-1,-1,-1,-1,-1,-1],"loss_changes":[2.1699988E3,1.7470022E3,1.3140562E3,7.752899E1,4.288308E2,6.9803986E1,1.6557104E2,0E0,6.660179E1,3.3179266E2,4.60177E1,0E0,1.00398346E2,1.7344423E2,4.0813232E1,3.247545E1,6.9579926E0,3.151966E2,2.1415698E2,5.871521E1,2.3716797E1,7.8241234E0,0E0,6.168509E1,3.706437E1,8.0974625E1,6.647705E0,1.7558041E0,1.5496407E0,1.1226459E1,1.7005157E0,8.26911E1,2.4000473E1,1.6710712E2,6.414182E1,2.4456757E1,8.321594E0,3.0639648E0,1.9673485E1,0E0,1.0582128E0,5.727885E0,9.286621E0,1.3592779E1,9.720272E0,5.2203045E0,0E0,4.7109177E1,4.055176E0,0E0,0E0,0E0,0E0,0E0,0E0,0E0,0E0,0E0,0E0,0E0,0E0,0E0,0E0,0E0,0E0,0E0,0E0,0E0,0E0,0E0,0E0,0E0,0E0,0E0,0E0,0E0,0E0,0E0,0E0,0E0,0E0,0E0,0E0,0E0,0E0,0E0,0E0,0E0,0E0],"parents":[2147483647,0,0,1,1,2,2,3,3,4,4,5,5,6,6,8,8,9,9,10,10,12,12,13,13,14,14,15,15,16,16,17,17,18,18,19,19,20,20,21,21,23,23,24,24,25,25,26,26,27,27,28,28,29,29,30,30,31,31,32,32,33,33,34,34,35,35,36,36,37,37,38,38,40,40,41,41,42,42,43,43,44,44,45,45,47,47,48,48],"right_children":[2,4,6,8,10,12,14,-1,16,18,20,-1,22,24,26,28,30,32,34,36,38,40,-1,42,44,46,48,50,52,54,56,58,60,62,64,66,68,70,72,-1,74,76,78,80,82,84,-1,86,88,-1,-1,-1,-1,-1,-1,-1,-1,-1,-1,-1,-1,-1,-1,-1,-1,-1,-1,-1,-1,-1,-1,-1,-1,-1,-1,-1,-1,-1,-1,-1,-1,-1,-1,-1,-1,-1,-1,-1,-1],"split_conditions":[3.913458E-1,-1.2377487E0,-7.248578E-1,-7.403884E-1,-1.1276229E-1,-7.313706E-1,5.263811E-1,-4.9140856E-2,-5.7556427E-1,2E0,-4.598229E-1,4.8223544E-2,1.5357065E0,2.6301098E-1,-7.1383613E-1,-3.7512192E-1,-3.085392E-1,5.396575E-1,1.7419358E-1,1.260208E0,2.7813947E-1,1.3435513E0,-4.332181E-2,-6.4670414E-1,-4.7111633E-1,1.0521106E0,-6.9429773E-1,-2.8493252E-1,2E0,5.7780284E-1,-9.736648E-1,3E0,1.0830222E0,-1.7408435E-1,-7.018125E-1,1E0,3.343688E-1,6.8286085E-1,2.506581E-1,4.5784675E-2,1.458092E0,-4.1506815E-1,1.6221484E0,-9.426806E-2,1.1160329E-1,8.8770986E-1,-4.4654913E-2,7.833213E-1,5.9393865E-1,5.5226292E-3,3.0554553E-2,-5.07354E-3,-3.288025E-2,-3.1309154E-2,1.3322844E-2,-1.7635887E-2,-4.359267E-2,4.205404E-2,-3.116911E-3,-5.55183E-3,-3.835645E-2,-1.3672702E-3,2.450905E-2,3.9856058E-2,-2.4399953E-2,3.440598E-2,1.5649236E-3,4.357433E-2,1.1625607E-2,4.18797E-2,4.9186245E-2,4.9751266E-3,3.755427E-2,-2.8472133E-3,1.6226415E-2,2.4484178E-2,-7.7068517E-3,-4.3809675E-2,-5.864924E-3,1.5727559E-3,-3.6702648E-2,8.956728E-3,3.5038725E-2,4.045676E-2,6.1350036E-3,1.622655E-2,-4.6548426E-2,-4.039297E-2,-4.954268E-2],"split_indices":[10,10,9,9,13,9,10,0,9,24,4,0,10,13,9,4,9,3,10,13,10,10,0,9,4,10,9,18,25,20,1,25,3,3,9,25,10,13,13,0,10,3,19,3,19,10,0,10,10,0,0,0,0,0,0,0,0,0,0,0,0,0,0,0,0,0,0,0,0,0,0,0,0,0,0,0,0,0,0,0,0,0,0,0,0,0,0,0,0],"split_type":[0,0,0,0,0,0,0,0,0,0,0,0,0,0,0,0,0,0,0,0,0,0,0,0,0,0,0,0,0,0,0,0,0,0,0,0,0,0,0,0,0,0,0,0,0,0,0,0,0,0,0,0,0,0,0,0,0,0,0,0,0,0,0,0,0,0,0,0,0,0,0,0,0,0,0,0,0,0,0,0,0,0,0,0,0,0,0,0,0],"sum_hessian":[6.7696323E3,4.5446357E3,2.2249966E3,6.318865E2,3.9127493E3,3.170377E2,1.907959E3,4.595431E2,1.7234337E2,2.6188088E3,1.2939406E3,2.3892114E2,7.811654E1,4.0937558E2,1.4985834E3,5.8875656E1,1.1346771E2,9.7630786E2,1.642501E3,3.3514914E2,9.587914E2,5.0019016E1,2.8097519E1,2.7109058E2,1.3828502E2,8.046436E1,1.418119E3,4.1271282E1,1.7604376E1,2.8637663E1,8.483005E1,8.5905273E2,1.1725513E2,1.3018706E3,3.4063034E2,1.4563704E2,1.895121E2,8.4568396E2,1.1310744E2,3.8731434E1,1.1287583E1,2.6992025E1,2.4409854E2,4.995599E1,8.832903E1,2.6511665E1,5.39527E1,1.0273066E2,1.3153884E3,5.772984E0,3.54983E1,4.6751585E0,1.2929216E1,1.9912786E1,8.724877E0,9.60734E0,7.522271E1,8.02761E2,5.6291786E1,5.4625427E1,6.26297E1,6.515358E2,6.5033484E2,1.891775E1,3.2171262E2,3.7991337E1,1.07645706E2,1.7528069E2,1.4231408E1,3.221112E2,5.2357275E2,3.6320934E1,7.678651E1,5.075461E0,6.212123E0,1.7785347E1,9.206678E0,2.3427286E2,9.825682E0,3.4568825E1,1.5387167E1,3.0971886E1,5.7357143E1,1.6459894E1,1.0051771E1,1.734587E1,8.5384796E1,1.7005833E2,1.1453301E3],"tree_param":{"num_deleted":"0","num_feature":"32","num_nodes":"89","size_leaf_vector":"1"}},{"base_weights":[4.1014596E-4,-1.2719017E0,1.3225871E0,-1.3554456E0,-3.903088E-1,4.6981144E-1,4.9808986E-2,-4.97878E-2,-1.0522305E0,-1.3553272E0,9.930597E-1,-1.0897439E0,1.2915293E0,-1.2989513E0,4.428873E-2,-5.2790623E-2,-6.497043E-1,1.8963818E-1,1.30123E0,-5.116885E-2,-2.4272427E-1,5.376263E-1,5.0726924E-2,-1.323784E0,-1.5503576E-2,-4.5744758E-2,1.8842433E-2,-4.5777775E-2,1.1009322E0,7.503127E-1,5.0224096E-2,-3.709311E-2,3.3571646E-2,-2.6996175E-2,4.3288082E-2,-1.843679E-2,-4.838477E-2,1.458139E-2,4.3317772E-2,3.294325E-2,8.881553E-3],"categories":[],"categories_nodes":[],"categories_segments":[],"categories_sizes":[],"default_left":[0,0,0,0,0,0,0,0,0,0,0,0,0,0,0,0,0,0,0,0,0,0,0,0,0,0,0,0,0,0,0,0,0,0,0,0,0,0,0,0,0],"id":18,"left_children":[1,3,5,7,9,11,-1,-1,13,15,17,19,21,23,-1,-1,25,27,29,-1,31,33,-1,35,-1,-1,-1,-1,37,39,-1,-1,-1,-1,-1,-1,-1,-1,-1,-1,-1],"loss_changes":[1.1235026E4,2.4902881E2,1.5077979E2,1.5525391E1,4.033319E2,2.6346103E2,0E0,0E0,1.2676938E2,1.0120483E1,3.0096191E1,1.8609138E1,8.866104E0,2.493866E0,0E0,0E0,2.256653E1,5.5011536E1,1.0754547E0,0E0,2.4582672E1,2.1615417E1,0E0,6.3690186E-2,0E0,0E0,0E0,0E0,1.968422E-1,8.481064E-1,0E0,0E0,0E0,0E0,0E0,0E0,0E0,0E0,0E0,0E0,0E0],"parents":[2147483647,0,0,1,1,2,2,3,3,4,4,5,5,8,8,9,9,10,10,11,11,12,12,13,13,16,16,17,17,18,18,20,20,21,21,23,23,28,28,29,29],"right_children":[2,4,6,8,10,12,-1,-1,14,16,18,20,22,24,-1,-1,26,28,30,-1,32,34,-1,36,-1,-1,-1,-1,38,40,-1,-1,-1,-1,-1,-1,-1,-1,-1,-1,-1],"split_conditions":[3.8840878E-1,3.205379E-1,4.2931163E-1,1.5163274E0,5.004348E-1,-5.3076837E-2,4.9808986E-2,-4.97878E-2,2.567603E-1,2.8283387E-1,7.1705395E-1,-2.894057E-1,1.3585626E-1,2.1965225E-1,4.428873E-2,-5.2790623E-2,3.6547074E-1,3.5505497E-1,3.319814E-1,-5.116885E-2,4.1826296E-1,4.0690202E-1,5.0726924E-2,-7.248578E-1,-1.5503576E-2,-4.5744758E-2,1.8842433E-2,-4.5777775E-2,5.429266E-1,2.2838545E-1,5.0224096E-2,-3.709311E-2,3.3571646E-2,-2.6996175E-2,4.3288082E-2,-1.843679E-2,-4.838477E-2,1.458139E-2,4.3317772E-2,3.294325E-2,8.881553E-3],"split_indices":[17,17,17,19,19,19,0,0,17,19,19,19,19,17,0,0,17,17,17,0,17,17,0,9,0,0,0,0,19,22,0,0,0,0,0,0,0,0,0,0,0],"split_type":[0,0,0,0,0,0,0,0,0,0,0,0,0,0,0,0,0,0,0,0,0,0,0,0,0,0,0,0,0,0,0,0,0,0,0,0,0,0,0,0,0],"sum_hessian":[6.672458E3,3.4004104E3,3.2720476E3,3.1045364E3,2.958741E2,1.9905276E2,3.0729949E3,2.8907996E3,2.1373682E2,1.7432828E2,1.21545845E2,6.8337685E1,1.3071507E2,1.9404729E2,1.9689522E1,1.489588E2,2.5369476E1,3.5090885E1,8.6454956E1,4.7872894E1,2.0464792E1,1.9130186E1,1.11584885E2,1.8708617E2,6.961123E0,1.6466152E1,8.903324E0,1.3044972E1,2.2045914E1,1.5940172E1,7.0514786E1,1.249622E1,7.968572E0,6.350663E0,1.2779523E1,5.1617427E0,1.8192442E2,4.64703E0,1.7398884E1,1.0191239E1,5.7489324E0],"tree_param":{"num_deleted":"0","num_feature":"32","num_nodes":"41","size_leaf_vector":"1"}},{"base_weights":[1.8170778E-5,-1.2656151E0,1.2948278E0,-1.3396649E0,-4.7722352E-1,4.154264E-1,4.9142703E-2,-4.8895136E-2,-1.0749297E0,-1.3486797E-1,-8.49412E-1,7.5028175E-1,4.784538E-2,-1.1125576E0,-3.2487132E-3,-4.3431038E-1,2.0320377E-1,-5.078475E-1,-1.0340886E0,3.3701253E-3,7.943053E-1,-4.743708E-1,1.8970574E-1,-7.3554265E-1,-4.5532804E-2,1.0377831E-1,-5.2794355E-1,4.779429E-1,-1.3055229E-2,-6.777775E-1,1.0156278E-2,-4.10683E-2,-5.4957366E-1,8.3668756E-1,4.2614248E-3,-2.6918188E-2,-6.584839E-2,5.1929915E-1,-2.7581919E-2,-5.621251E-3,-3.0792158E-2,1.4791126E-2,-1.0708453E-2,-8.609973E-3,-2.697239E-2,4.543979E-3,2.4140438E-2,8.629236E-3,-1.1385452E-2,-2.74382E-2,-1.8767877E-3,-3.7036886E-4,-3.3018168E-2,1.3163833E-2,3.2510612E-2,-7.50924E-3,3.5979417E-3,-4.8261997E-3,2.403398E-2,-1.7187377E-2,1.3635608E-2],"categories":[],"categories_nodes":[],"categories_segments":[],"categories_sizes":[],"default_left":[0,0,0,0,0,0,0,0,0,0,0,0,0,0,0,0,0,0,0,0,0,0,0,0,0,0,0,0,0,0,0,0,0,0,0,0,0,0,0,0,0,0,0,0,0,0,0,0,0,0,0,0,0,0,0,0,0,0,0,0,0],"id":19,"left_children":[1,3,5,7,9,11,-1,-1,13,15,17,19,21,23,-1,25,27,29,31,-1,33,35,37,39,-1,41,43,45,47,49,-1,-1,51,53,-1,-1,55,57,59,-1,-1,-1,-1,-1,-1,-1,-1,-1,-1,-1,-1,-1,-1,-1,-1,-1,-1,-1,-1,-1,-1],"loss_changes":[1.0693527E4,1.9065723E2,1.7990039E2,5.3398438E0,3.636171E1,2.7390408E1,0E0,0E0,5.2365417E0,1.5844418E1,7.0370026E0,3.1457367E0,8.417306E0,5.0635376E0,0E0,4.3298006E0,4.437599E0,7.878664E0,2.2979584E0,0E0,2.8172379E0,2.5331883E0,6.389806E0,2.7987118E0,0E0,2.1880474E0,3.9204102E0,1.9318204E0,3.6240814E0,2.1891918E0,0E0,0E0,4.0811906E0,1.9849854E0,0E0,0E0,3.7156212E-1,3.6292734E0,1.0765903E1,0E0,0E0,0E0,0E0,0E0,0E0,0E0,0E0,0E0,0E0,0E0,0E0,0E0,0E0,0E0,0E0,0E0,0E0,0E0,0E0,0E0,0E0],"parents":[2147483647,0,0,1,1,2,2,3,3,4,4,5,5,8,8,9,9,10,10,11,11,12,12,13,13,15,15,16,16,17,17,18,18,20,20,21,21,22,22,23,23,25,25,26,26,27,27,28,28,29,29,32,32,33,33,36,36,37,37,38,38],"right_children":[2,4,6,8,10,12,-1,-1,14,16,18,20,22,24,-1,26,28,30,32,-1,34,36,38,40,-1,42,44,46,48,50,-1,-1,52,54,-1,-1,56,58,60,-1,-1,-1,-1,-1,-1,-1,-1,-1,-1,-1,-1,-1,-1,-1,-1,-1,-1,-1,-1,-1,-1],"split_conditions":[3.8261524E-1,3.150222E-1,4.2931163E-1,2.7474836E-1,3.3489287E-1,-1.3195935E-1,4.9142703E-2,-4.8895136E-2,3.7719827E0,3.5505497E-1,1.15007296E-1,-6.9429773E-1,-4.5208162E-1,-4.0335557E-1,-3.2487132E-3,-6.86695E-1,-6.367468E-1,3E0,1.8459252E0,3.3701253E-3,4.0315267E-1,-3.2105437E-1,5.7780284E-1,-1.3665951E0,-4.5532804E-2,-2.310054E-1,-6.367468E-1,2E0,-4.391182E-1,1.482903E0,1.0156278E-2,-4.10683E-2,-4.8042494E-1,-1.1016724E0,4.2614248E-3,-2.6918188E-2,-1.0373089E-1,-6.547199E-1,2.9521108E-1,-5.621251E-3,-3.0792158E-2,1.4791126E-2,-1.0708453E-2,-8.609973E-3,-2.697239E-2,4.543979E-3,2.4140438E-2,8.629236E-3,-1.1385452E-2,-2.74382E-2,-1.8767877E-3,-3.7036886E-4,-3.3018168E-2,1.3163833E-2,3.2510612E-2,-7.50924E-3,3.5979417E-3,-4.8261997E-3,2.403398E-2,-1.7187377E-2,1.3635608E-2],"split_indices":[17,17,17,17,20,12,0,0,0,17,12,9,14,4,0,2,20,25,4,0,7,2,20,22,0,11,20,25,4,6,0,0,11,21,0,0,11,9,6,0,0,0,0,0,0,0,0,0,0,0,0,0,0,0,0,0,0,0,0,0,0],"split_type":[0,0,0,0,0,0,0,0,0,0,0,0,0,0,0,0,0,0,0,0,0,0,0,0,0,0,0,0,0,0,0,0,0,0,0,0,0,0,0,0,0,0,0,0,0,0,0,0,0,0,0,0,0,0,0,0,0,0,0,0,0],"sum_hessian":[6.5191733E3,3.2967651E3,3.222408E3,3.0117124E3,2.8505295E2,2.2032436E2,3.0020835E3,2.865159E3,1.4655342E2,1.5068651E2,1.3436644E2,1.13598206E2,1.0672614E2,1.4077342E2,5.7799983E0,7.943857E1,7.124795E1,5.1251244E1,8.311519E1,7.742248E0,1.0585596E2,2.1239923E1,8.548622E1,4.4638466E1,9.613495E1,1.17242985E1,6.7714264E1,2.9721607E1,4.152634E1,4.2526337E1,8.72491E0,6.525873E1,1.7856464E1,9.8920944E1,6.9350123E0,1.1247856E1,9.992068E0,3.224611E1,5.3240112E1,8.647464E0,3.5991005E1,6.608937E0,5.1153617E0,3.1853355E1,3.5860912E1,1.22095E1,1.7512108E1,2.2998194E1,1.8528147E1,3.7071953E1,5.4543843E0,8.477302E0,9.379162E0,1.3997188E1,8.492376E1,4.950148E0,5.04192E0,5.9163766E0,2.6329733E1,2.5017519E1,2.8222593E1],"tree_param":{"num_deleted":"0","num_feature":"32","num_nodes":"61","size_leaf_vector":"1"}},{"base_weights":[1.0948057E-3,-1.2358953E0,1.2868418E0,-1.3219355E0,-4.1419163E-1,4.413741E-1,4.8522748E-2,-4.863843E-2,-1.0782113E0,-1.2821506E0,9.9062544E-1,-1.0876825E0,1.2651141E0,-1.2818877E0,9.68758E-1,-5.1161803E-2,-5.2373934E-1,4.1566175E-1,1.3124639E0,-5.036947E-2,-2.839908E-1,4.3068764E-1,4.945327E-2,-2.0002583E-2,-1.3032274E0,7.5907744E-3,4.371197E-2,-4.3841697E-2,3.2897476E-2,-9.1418713E-1,4.4268515E-2,1.828751E-2,4.933684E-2,-1.0119798E0,3.178701E-2,-3.244595E-2,4.087147E-2,-4.767252E-2,-1.982686E-2,-4.422067E-2,-8.230389E-3,-4.404479E-2,-1.1355846E-2],"categories":[],"categories_nodes":[],"categories_segments":[],"categories_sizes":[],"default_left":[0,0,0,0,0,0,0,0,0,0,0,0,0,0,0,0,0,0,0,0,0,0,0,0,0,0,0,0,0,0,0,0,0,0,0,0,0,0,0,0,0,0,0],"id":20,"left_children":[1,3,5,7,9,11,-1,-1,13,15,17,19,21,23,25,-1,27,29,31,-1,33,35,-1,-1,37,-1,-1,-1,-1,39,-1,-1,-1,41,-1,-1,-1,-1,-1,-1,-1,-1,-1],"loss_changes":[1.0198926E4,2.2935986E2,1.440664E2,1.20546875E1,3.872065E2,2.5155673E2,0E0,0E0,1.166839E2,1.7360107E1,2.0838402E1,1.603341E1,9.184814E0,1.604126E0,3.9919243E0,0E0,3.7039104E1,5.537263E1,1.0534668E0,0E0,2.2482904E1,2.0470947E1,0E0,0E0,4.4467163E-1,0E0,0E0,0E0,0E0,3.3773727E0,0E0,0E0,0E0,1.0756187E0,0E0,0E0,0E0,0E0,0E0,0E0,0E0,0E0,0E0],"parents":[2147483647,0,0,1,1,2,2,3,3,4,4,5,5,8,8,9,9,10,10,11,11,12,12,13,13,14,14,16,16,17,17,18,18,20,20,21,21,24,24,29,29,33,33],"right_children":[2,4,6,8,10,12,-1,-1,14,16,18,20,22,24,26,-1,28,30,32,-1,34,36,-1,-1,38,-1,-1,-1,-1,40,-1,-1,-1,42,-1,-1,-1,-1,-1,-1,-1,-1,-1],"split_conditions":[3.8840878E-1,3.150222E-1,4.2931163E-1,1.330405E0,5.429266E-1,-5.3076837E-2,4.8522748E-2,-4.863843E-2,2.567603E-1,3.1641704E-1,8.4388614E-1,-2.894057E-1,1.1160329E-1,-7.2001475E-1,2.7474836E-1,-5.1161803E-2,3.6547074E-1,3.4845543E-1,3.205379E-1,-5.036947E-2,4.1826296E-1,4.0690202E-1,4.945327E-2,-2.0002583E-2,2.2995168E-1,7.5907744E-3,4.371197E-2,-4.3841697E-2,3.2897476E-2,7.289401E-1,4.4268515E-2,1.828751E-2,4.933684E-2,-9.750131E-2,3.178701E-2,-3.244595E-2,4.087147E-2,-4.767252E-2,-1.982686E-2,-4.422067E-2,-8.230389E-3,-4.404479E-2,-1.1355846E-2],"split_indices":[17,17,17,19,19,19,0,0,17,19,19,19,19,2,17,0,17,17,17,0,17,17,0,0,17,0,0,0,0,19,0,0,0,19,0,0,0,0,0,0,0,0,0],"split_type":[0,0,0,0,0,0,0,0,0,0,0,0,0,0,0,0,0,0,0,0,0,0,0,0,0,0,0,0,0,0,0,0,0,0,0,0,0,0,0,0,0,0,0],"sum_hessian":[6.4063516E3,3.265145E3,3.1412065E3,2.9539434E3,3.112017E2,1.9320529E2,2.9480012E3,2.686459E3,2.6748428E2,1.9252376E2,1.1867793E2,6.729402E1,1.2591128E2,2.443362E2,2.314808E1,1.6158803E2,3.093572E1,4.51508E1,7.352713E1,4.712248E1,2.0171547E1,1.5527656E1,1.1038362E2,9.3352585E0,2.3500093E2,6.963148E0,1.6184933E1,2.122187E1,9.713851E0,1.69164E1,2.82344E1,6.45554E0,6.7071594E1,1.2654319E1,7.517228E0,5.053705E0,1.047395E1,2.2814838E2,6.8525605E0,9.993633E0,6.922768E0,7.980501E0,4.673817E0],"tree_param":{"num_deleted":"0","num_feature":"32","num_nodes":"43","size_leaf_vector":"1"}},{"base_weights":[-5.450799E-4,-1.2278515E0,1.2609639E0,-1.3048868E0,-4.3117824E-1,3.9861906E-1,4.79342E-2,-4.803969E-2,-1.0580482E0,-1.3022184E0,9.573001E-1,-1.0567644E0,1.2360481E0,-1.264728E0,9.556771E-1,-4.8996482E-2,-8.346767E-3,3.023534E-1,4.6995044E-2,-4.9837604E-2,-3.2188615E-1,4.5926636E-1,4.806546E-2,-4.643726E-2,-2.1022135E-2,5.2357796E-3,4.340456E-2,-8.8456285E-1,4.3153513E-2,-4.3509804E-2,7.083321E-1,-2.4687944E-2,4.0334094E-2,-4.2859983E-2,-8.028416E-3,8.0610844E-5,3.7978455E-2],"categories":[],"categories_nodes":[],"categories_segments":[],"categories_sizes":[],"default_left":[0,0,0,0,0,0,0,0,0,0,0,0,0,0,0,0,0,0,0,0,0,0,0,0,0,0,0,0,0,0,0,0,0,0,0,0,0],"id":21,"left_children":[1,3,5,7,9,11,-1,-1,13,15,17,19,21,23,25,-1,-1,27,-1,-1,29,31,-1,-1,-1,-1,-1,33,-1,-1,35,-1,-1,-1,-1,-1,-1],"loss_changes":[9.658676E3,1.9231104E2,1.6943701E2,1.2328125E1,3.4669354E2,2.7037762E2,0E0,0E0,1.1432248E2,8.91864E0,2.3667595E1,1.786029E1,8.226654E0,8.768921E-1,4.7135353E0,0E0,0E0,4.7879765E1,0E0,0E0,2.8847052E1,1.7163082E1,0E0,0E0,0E0,0E0,0E0,3.1380043E0,0E0,0E0,3.6763082E0,0E0,0E0,0E0,0E0,0E0,0E0],"parents":[2147483647,0,0,1,1,2,2,3,3,4,4,5,5,8,8,9,9,10,10,11,11,12,12,13,13,14,14,17,17,20,20,21,21,27,27,30,30],"right_children":[2,4,6,8,10,12,-1,-1,14,16,18,20,22,24,26,-1,-1,28,-1,-1,30,32,-1,-1,-1,-1,-1,34,-1,-1,36,-1,-1,-1,-1,-1,-1],"split_conditions":[3.8261524E-1,3.150222E-1,4.2931163E-1,1.330405E0,5.429266E-1,-2.3862522E-2,4.79342E-2,-4.803969E-2,2.567603E-1,4.8798177E-1,8.4388614E-1,-2.894057E-1,1.3585626E-1,2.1965225E-1,2.7474836E-1,-4.8996482E-2,-8.346767E-3,3.4845543E-1,4.6995044E-2,-4.9837604E-2,4.122843E-1,4.0690202E-1,4.806546E-2,-4.643726E-2,-2.1022135E-2,5.2357796E-3,4.340456E-2,7.289401E-1,4.3153513E-2,-4.3509804E-2,-1.8193905E-1,-2.4687944E-2,4.0334094E-2,-4.2859983E-2,-8.028416E-3,8.0610844E-5,3.7978455E-2],"split_indices":[17,17,17,19,19,19,0,0,17,19,19,19,19,17,17,0,0,17,0,0,17,17,0,0,0,0,0,19,0,0,19,0,0,0,0,0,0],"split_type":[0,0,0,0,0,0,0,0,0,0,0,0,0,0,0,0,0,0,0,0,0,0,0,0,0,0,0,0,0,0,0,0,0,0,0,0,0],"sum_hessian":[6.2321875E3,3.1589587E3,3.0732288E3,2.8786208E3,2.803381E2,2.1539241E2,2.8578364E3,2.616092E3,2.6252878E2,1.7238715E2,1.0795095E2,7.8372284E1,1.3702013E2,2.3914233E2,2.3386435E1,1.6353375E2,8.85339E0,3.9057934E1,6.889302E1,5.263349E1,2.5738792E1,1.663253E1,1.20387596E2,2.2990263E2,9.239696E0,6.566703E0,1.6819733E1,1.6756348E1,2.2301586E1,1.3590911E1,1.2147882E1,6.02271E0,1.0609821E1,9.837676E0,6.918672E0,4.9848022E0,7.1630797E0],"tree_param":{"num_deleted":"0","num_feature":"32","num_nodes":"37","size_leaf_vector":"1"}},{"base_weights":[1.3825244E-3,-1.2013946E0,1.2558157E0,-1.2887508E0,-3.9027917E-1,4.2984074E-1,4.7383722E-2,-4.7475748E-2,-1.0380465E0,-1.2939997E0,8.737018E-1,-1.0292865E0,1.2209663E0,-1.248542E0,9.683268E-1,-5.003276E-2,-6.698694E-1,2.58311E-1,1.256752E0,-4.8640326E-2,-2.2979693E-1,4.918871E-1,4.8222672E-2,-1.8089533E-2,-1.270836E0,7.2764377E-3,4.3731138E-2,-4.541203E-2,1.8209757E-2,-9.034144E-1,1.100393E0,1.7601566E-2,4.714064E-2,-4.1663345E-2,6.731567E-1,-2.5669262E-2,4.0990487E-2,-4.6502016E-2,-2.0415368E-2,-4.49316E-2,9.09677E-5,1.4554744E-2,4.3670453E-2,2.1097295E-3,3.5468176E-2],"categories":[],"categories_nodes":[],"categories_segments":[],"categories_sizes":[],"default_left":[0,0,0,0,0,0,0,0,0,0,0,0,0,0,0,0,0,0,0,0,0,0,0,0,0,0,0,0,0,0,0,0,0,0,0,0,0,0,0,0,0,0,0,0,0],"id":22,"left_children":[1,3,5,7,9,11,-1,-1,13,15,17,19,21,23,25,-1,27,29,31,-1,33,35,-1,-1,37,-1,-1,-1,-1,39,41,-1,-1,-1,43,-1,-1,-1,-1,-1,-1,-1,-1,-1,-1],"loss_changes":[9.204197E3,2.1909961E2,1.3245801E2,1.2684082E1,3.5449896E2,2.2231403E2,0E0,0E0,1.13837006E2,7.1905823E0,2.9623253E1,1.6252403E1,8.133881E0,1.9789124E0,4.1399364E0,0E0,2.1669735E1,5.570301E1,8.796997E-1,0E0,2.1620626E1,1.9094864E1,0E0,0E0,1.6186523E-1,0E0,0E0,0E0,0E0,7.4755135E0,9.236374E-1,0E0,0E0,0E0,2.397365E0,0E0,0E0,0E0,0E0,0E0,0E0,0E0,0E0,0E0,0E0],"parents":[2147483647,0,0,1,1,2,2,3,3,4,4,5,5,8,8,9,9,10,10,11,11,12,12,13,13,14,14,16,16,17,17,18,18,20,20,21,21,24,24,29,29,30,30,34,34],"right_children":[2,4,6,8,10,12,-1,-1,14,16,18,20,22,24,26,-1,28,30,32,-1,34,36,-1,-1,38,-1,-1,-1,-1,40,42,-1,-1,-1,44,-1,-1,-1,-1,-1,-1,-1,-1,-1,-1],"split_conditions":[3.8840878E-1,3.150222E-1,4.2931163E-1,1.330405E0,4.8798177E-1,-5.3076837E-2,4.7383722E-2,-4.7475748E-2,2.567603E-1,2.8283387E-1,8.1430775E-1,-2.894057E-1,1.3585626E-1,-7.2001475E-1,2.7474836E-1,-5.003276E-2,3.6547074E-1,3.5505497E-1,3.205379E-1,-4.8640326E-2,4.122843E-1,4.0690202E-1,4.8222672E-2,-1.8089533E-2,2.2995168E-1,7.2764377E-3,4.3731138E-2,-4.541203E-2,1.8209757E-2,7.289401E-1,5.429266E-1,1.7601566E-2,4.714064E-2,-4.1663345E-2,-1.8193905E-1,-2.5669262E-2,4.0990487E-2,-4.6502016E-2,-2.0415368E-2,-4.49316E-2,9.09677E-5,1.4554744E-2,4.3670453E-2,2.1097295E-3,3.5468176E-2],"split_indices":[17,17,17,19,19,19,0,0,17,19,19,19,19,2,17,0,17,17,17,0,17,17,0,0,17,0,0,0,0,19,19,0,0,0,19,0,0,0,0,0,0,0,0,0,0],"split_type":[0,0,0,0,0,0,0,0,0,0,0,0,0,0,0,0,0,0,0,0,0,0,0,0,0,0,0,0,0,0,0,0,0,0,0,0,0,0,0,0,0,0,0,0,0],"sum_hessian":[6.094101E3,3.1111736E3,2.9829275E3,2.8070269E3,3.041467E2,1.8608443E2,2.796843E3,2.5495098E3,2.5751718E2,1.77304E2,1.2684268E2,6.509252E1,1.20991905E2,2.3412982E2,2.3387344E1,1.5175824E2,2.5545765E1,5.066299E1,7.6179695E1,4.514278E1,1.994974E1,1.8405306E1,1.025866E2,8.884276E0,2.2524554E2,6.954822E0,1.6432522E1,1.6893118E1,8.652646E0,2.1195368E1,2.946762E1,6.3944345E0,6.978526E1,9.444446E0,1.0505294E1,6.290926E0,1.211438E1,2.1805539E2,7.1901603E0,1.4582062E1,6.613306E0,5.8931026E0,2.3574518E1,4.738309E0,5.766985E0],"tree_param":{"num_deleted":"0","num_feature":"32","num_nodes":"45","size_leaf_vector":"1"}},{"base_weights":[-6.4021564E-4,-1.1873964E0,1.2418691E0,-1.2753676E0,-3.751579E-1,4.18998E-1,4.6860613E-2,-4.6828516E-2,-9.974187E-1,-1.2315317E0,9.2509806E-1,-1.1566063E0,1.1544068E0,-1.2095362E0,3.9235342E-2,-4.911502E-2,-5.288756E-1,3.6660302E-1,1.251346E0,-4.777341E-2,-3.035585E-1,3.4475958E-1,4.7138195E-2,-4.5879334E-2,-6.5176624E-1,-1.1351875E0,2.9003836E-2,-8.8941395E-1,4.1232567E-2,1.6386876E-2,4.7187127E-2,5.9924317E-3,-2.5446339E-2,-3.5011735E-2,3.823707E-2,-4.0994294E-2,1.3326425E-2,-4.51211E-2,-1.5700333E-2,-4.256296E-2,-8.097819E-3],"categories":[],"categories_nodes":[],"categories_segments":[],"categories_sizes":[],"default_left":[0,0,0,0,0,0,0,0,0,0,0,0,0,0,0,0,0,0,0,0,0,0,0,0,0,0,0,0,0,0,0,0,0,0,0,0,0,0,0,0,0],"id":23,"left_children":[1,3,5,7,9,11,-1,-1,13,15,17,19,21,23,-1,-1,25,27,29,-1,31,33,-1,-1,35,37,-1,39,-1,-1,-1,-1,-1,-1,-1,-1,-1,-1,-1,-1,-1],"loss_changes":[8.7669375E3,2.1579785E2,1.2712793E2,1.0852051E1,3.3936145E2,2.1637753E2,0E0,0E0,8.953131E1,1.4053741E1,2.0715996E1,7.1432266E0,1.385643E1,3.261139E0,0E0,0E0,2.950933E1,5.097731E1,1.3773117E0,0E0,2.937086E0,2.5533815E1,0E0,0E0,1.2784898E1,2.06007E-1,0E0,3.1035538E0,0E0,0E0,0E0,0E0,0E0,0E0,0E0,0E0,0E0,0E0,0E0,0E0,0E0],"parents":[2147483647,0,0,1,1,2,2,3,3,4,4,5,5,8,8,9,9,10,10,11,11,12,12,13,13,16,16,17,17,18,18,20,20,21,21,24,24,25,25,27,27],"right_children":[2,4,6,8,10,12,-1,-1,14,16,18,20,22,24,-1,-1,26,28,30,-1,32,34,-1,-1,36,38,-1,40,-1,-1,-1,-1,-1,-1,-1,-1,-1,-1,-1,-1,-1],"split_conditions":[3.8840878E-1,3.150222E-1,4.2931163E-1,1.5163274E0,5.322915E-1,-9.750131E-2,4.6860613E-2,-4.6828516E-2,2.567603E-1,2.9888687E-1,8.4388614E-1,-2.565559E-1,1.1160329E-1,1.4160062E-1,3.9235342E-2,-4.911502E-2,3.6547074E-1,3.4845543E-1,3.205379E-1,-4.777341E-2,6.0759734E-2,4.0690202E-1,4.7138195E-2,-4.5879334E-2,2.01872E0,2.9253396E-1,2.9003836E-2,7.289401E-1,4.1232567E-2,1.6386876E-2,4.7187127E-2,5.9924317E-3,-2.5446339E-2,-3.5011735E-2,3.823707E-2,-4.0994294E-2,1.3326425E-2,-4.51211E-2,-1.5700333E-2,-4.256296E-2,-8.097819E-3],"split_indices":[17,17,17,19,19,19,0,0,17,19,19,19,19,17,0,0,17,17,17,0,3,17,0,0,19,3,0,19,0,0,0,0,0,0,0,0,0,0,0,0,0],"split_type":[0,0,0,0,0,0,0,0,0,0,0,0,0,0,0,0,0,0,0,0,0,0,0,0,0,0,0,0,0,0,0,0,0,0,0,0,0,0,0,0,0],"sum_hessian":[5.9392495E3,3.03785E3,2.9013994E3,2.7393806E3,2.984695E2,1.8003824E2,2.7213613E3,2.5490469E3,1.9033372E2,1.8004979E2,1.1841972E2,5.6724174E1,1.2331407E2,1.7392213E2,1.64116E1,1.5010606E2,2.9943712E1,4.610535E1,7.231438E1,4.6126587E1,1.0597587E1,2.0773958E1,1.02540115E2,1.536721E2,2.0250032E1,2.0886276E1,9.057436E0,1.739471E1,2.871064E1,6.390238E0,6.592414E1,5.716484E0,4.8811026E0,6.915445E0,1.3858514E1,1.3519923E1,6.730109E0,1.5906523E1,4.9797535E0,1.0476005E1,6.918706E0],"tree_param":{"num_deleted":"0","num_feature":"32","num_nodes":"41","size_leaf_vector":"1"}},{"base_weights":[5.541805E-4,-1.1851817E0,1.2174386E0,-1.2609262E0,-4.2664775E-1,3.6471435E-1,4.6366747E-2,-4.645098E-2,-1.0140541E0,-1.1699492E0,9.896755E-1,-1.045005E0,1.1530929E0,-1.2170993E0,9.0891474E-1,-4.7702968E-2,-3.8749033E-1,4.7573417E-1,4.7027785E-2,-4.7574025E-2,-3.6360022E-1,4.2297593E-1,4.6078205E-2,-1.6943209E-2,-1.2403775E0,7.98669E-3,4.2024616E-2,-4.2602036E-2,7.0742685E-1,-2.7771974E-2,3.9600622E-2,-1.0337147E0,3.1196577E-2,-2.6323453E-2,4.0385045E-2,-4.5443714E-2,-1.790739E-2,-7.045384E-4,3.724717E-2,-4.338503E-2,-1.3940102E-2],"categories":[],"categories_nodes":[],"categories_segments":[],"categories_sizes":[],"default_left":[0,0,0,0,0,0,0,0,0,0,0,0,0,0,0,0,0,0,0,0,0,0,0,0,0,0,0,0,0,0,0,0,0,0,0,0,0,0,0,0,0],"id":24,"left_children":[1,3,5,7,9,11,-1,-1,13,15,17,19,21,23,25,-1,27,29,-1,-1,31,33,-1,-1,35,-1,-1,-1,37,-1,-1,39,-1,-1,-1,-1,-1,-1,-1,-1,-1],"loss_changes":[8.374625E3,1.6722021E2,1.565083E2,1.1450195E1,2.8952893E2,2.3300685E2,0E0,0E0,9.9917786E1,1.9356567E1,1.3270607E1,1.2448013E1,1.0143997E1,2.108307E0,3.6214619E0,0E0,3.128532E1,3.401543E1,0E0,0E0,2.3968584E1,2.1439854E1,0E0,0E0,6.737671E-1,0E0,0E0,0E0,3.7767067E0,0E0,0E0,5.0658417E-1,0E0,0E0,0E0,0E0,0E0,0E0,0E0,0E0,0E0],"parents":[2147483647,0,0,1,1,2,2,3,3,4,4,5,5,8,8,9,9,10,10,11,11,12,12,13,13,14,14,16,16,17,17,20,20,21,21,24,24,28,28,31,31],"right_children":[2,4,6,8,10,12,-1,-1,14,16,18,20,22,24,26,-1,28,30,-1,-1,32,34,-1,-1,36,-1,-1,-1,38,-1,-1,40,-1,-1,-1,-1,-1,-1,-1,-1,-1],"split_conditions":[3.8261524E-1,3.150222E-1,4.2931163E-1,1.330405E0,6.230054E-1,-5.3076837E-2,4.6366747E-2,-4.645098E-2,2.567603E-1,3.9609066E-1,9.712476E-1,-2.894057E-1,1.4750244E-1,-7.2001475E-1,-5.735831E-1,-4.7702968E-2,3.593471E-1,3.433616E-1,4.7027785E-2,-4.7574025E-2,4.1826296E-1,4.0690202E-1,4.6078205E-2,-1.6943209E-2,2.2995168E-1,7.98669E-3,4.2024616E-2,-4.2602036E-2,3.6547074E-1,-2.7771974E-2,3.9600622E-2,-9.750131E-2,3.1196577E-2,-2.6323453E-2,4.0385045E-2,-4.5443714E-2,-1.790739E-2,-7.045384E-4,3.724717E-2,-4.338503E-2,-1.3940102E-2],"split_indices":[17,17,17,19,19,19,0,0,17,19,19,19,19,2,2,0,17,17,0,0,17,17,0,0,17,0,0,0,17,0,0,19,0,0,0,0,0,0,0,0,0],"split_type":[0,0,0,0,0,0,0,0,0,0,0,0,0,0,0,0,0,0,0,0,0,0,0,0,0,0,0,0,0,0,0,0,0,0,0,0,0,0,0,0,0],"sum_hessian":[5.7977812E3,2.9365142E3,2.8612673E3,2.6680317E3,2.684823E2,2.0316385E2,2.6581035E3,2.4240623E3,2.4396954E2,1.7643103E2,9.205127E1,7.250405E1,1.3065979E2,2.2170293E2,2.2266611E1,1.463974E2,3.0033625E1,3.7652386E1,5.439888E1,4.9827374E1,2.267668E1,2.0570585E1,1.100892E2,8.669837E0,2.130331E2,7.556374E0,1.47102375E1,1.7304E1,1.2729624E1,1.2267959E1,2.5384426E1,1.4979481E1,7.697198E0,7.678742E0,1.2891844E1,2.0640672E2,6.6263742E0,4.811194E0,7.91843E0,9.817792E0,5.161689E0],"tree_param":{"num_deleted":"0","num_feature":"32","num_nodes":"41","size_leaf_vector":"1"}},{"base_weights":[1.405405E-4,3.520995E-1,-7.395098E-1,-7.598334E-1,7.207094E-1,9.602092E-1,-1.0237622E0,-1.0726262E0,3.7444383E-1,8.016E-1,-5.691265E-1,4.395294E-2,1.9330224E-1,-5.170864E-1,-1.1550206E0,-1.1384513E0,5.1886714E-1,1.7235234E-2,4.2431064E-2,9.3257004E-1,2.3136671E-1,1.7208171E-1,-1.0787404E0,1.016228E0,-9.518719E-1,-9.7532755E-1,2.0289063E-1,-4.6349087E-1,-1.1933825E0,-6.4687645E-1,-1.1669507E0,7.64671E-1,-1.3203109E-2,9.026685E-1,-3.888833E-1,4.9282587E-1,1.0717156E0,-3.990358E-1,6.069541E-1,9.0828776E-1,-1.9630346E-1,-1.162752E0,-3.2457924E-1,4.0936813E-2,1.0636012E-2,-3.991442E-2,-3.7042613E-3,2.384618E-1,-1.1097586E0,5.17061E-1,-8.901069E-1,6.896415E-1,-4.0062618E-2,-1.2163157E0,-6.802761E-1,5.1805484E-3,-3.600397E-2,-4.261179E-2,-9.589986E-3,9.9154385E-3,3.5722457E-2,3.8925026E-2,1.5938027E-2,-3.2060523E-2,4.4237156E-3,-3.1905077E-4,3.965605E-2,1.9861095E-2,4.1657407E-2,-2.6246214E-2,7.2988034E-3,3.330634E-2,-1.718435E-2,3.6961164E-2,1.2144127E-2,-3.2488253E-2,1.51309995E-2,-4.392606E-2,-1.8998746E-2,-2.9098231E-2,6.352508E-3,-1.5148838E-2,2.3719693E-2,-4.2394347E-2,-2.080139E-3,2.4139674E-2,-2.6995542E-2,-5.080249E-3,-4.0203787E-2,3.5973735E-2,3.143608E-3,-3.643887E-2,-4.4939097E-2,7.886396E-3,-3.2419685E-2],"categories":[],"categories_nodes":[],"categories_segments":[],"categories_sizes":[],"default_left":[0,0,0,0,0,0,0,0,0,0,0,0,0,0,0,0,0,0,0,0,0,0,0,0,0,0,0,0,0,0,0,0,0,0,0,0,0,0,0,0,0,0,0,0,0,0,0,0,0,0,0,0,0,0,0,0,0,0,0,0,0,0,0,0,0,0,0,0,0,0,0,0,0,0,0,0,0,0,0,0,0,0,0,0,0,0,0,0,0,0,0,0,0,0,0],"id":25,"left_children":[1,3,5,7,9,11,13,15,17,19,21,-1,23,25,27,29,31,33,-1,35,37,39,41,43,45,47,49,51,53,55,57,59,-1,61,63,65,67,69,71,73,75,77,79,-1,-1,-1,-1,81,83,85,87,89,-1,91,93,-1,-1,-1,-1,-1,-1,-1,-1,-1,-1,-1,-1,-1,-1,-1,-1,-1,-1,-1,-1,-1,-1,-1,-1,-1,-1,-1,-1,-1,-1,-1,-1,-1,-1,-1,-1,-1,-1,-1,-1],"loss_changes":[1.4715974E3,1.5716166E3,8.836567E2,3.4012708E2,3.0172412E2,5.0682007E1,1.0208789E2,8.0355225E1,5.9508995E1,2.0169702E2,6.542462E1,0E0,6.8315094E1,1.08577E2,3.1143188E1,7.746277E0,7.801838E0,5.4103573E1,0E0,1.331261E2,1.2156751E2,2.0252766E1,5.297554E0,2.459198E0,3.592041E0,3.3539368E1,4.6020523E1,5.4537544E1,1.1212402E1,1.3249321E1,5.94751E0,1.9988565E0,0E0,2.3172264E0,2.660157E1,1.6211388E2,6.8012695E1,3.8222168E1,1.1043525E2,5.447426E-1,2.316508E1,1.012497E0,3.9360273E0,0E0,0E0,0E0,0E0,7.0442114E0,1.1699066E1,2.1096693E1,4.5193367E0,4.710988E0,0E0,2.2415771E0,1.1716427E1,0E0,0E0,0E0,0E0,0E0,0E0,0E0,0E0,0E0,0E0,0E0,0E0,0E0,0E0,0E0,0E0,0E0,0E0,0E0,0E0,0E0,0E0,0E0,0E0,0E0,0E0,0E0,0E0,0E0,0E0,0E0,0E0,0E0,0E0,0E0,0E0,0E0,0E0,0E0,0E0],"parents":[2147483647,0,0,1,1,2,2,3,3,4,4,5,5,6,6,7,7,8,8,9,9,10,10,12,12,13,13,14,14,15,15,16,16,17,17,19,19,20,20,21,21,22,22,23,23,24,24,25,25,26,26,27,27,28,28,29,29,30,30,31,31,33,33,34,34,35,35,36,36,37,37,38,38,39,39,40,40,41,41,42,42,47,47,48,48,49,49,50,50,51,51,53,53,54,54],"right_children":[2,4,6,8,10,12,14,16,18,20,22,-1,24,26,28,30,32,34,-1,36,38,40,42,44,46,48,50,52,54,56,58,60,-1,62,64,66,68,70,72,74,76,78,80,-1,-1,-1,-1,82,84,86,88,90,-1,92,94,-1,-1,-1,-1,-1,-1,-1,-1,-1,-1,-1,-1,-1,-1,-1,-1,-1,-1,-1,-1,-1,-1,-1,-1,-1,-1,-1,-1,-1,-1,-1,-1,-1,-1,-1,-1,-1,-1,-1,-1],"split_conditions":[3.97908E-1,-5.4402196E-1,-7.248578E-1,-1.5926859E-1,2.4669597E0,-7.313706E-1,5.263811E-1,1.9029742E-1,7.8584456E-1,1.8780267E-1,3.0481339E-1,4.395294E-2,1.5100259E0,5.06776E-2,-7.1383613E-1,-1.1225667E0,2.4593854E-1,-3.8453314E-1,4.2431064E-2,-4.936106E-1,-2.1085039E-1,-3.598107E-1,-3.5716063E-1,1.3435513E0,-5.134302E-1,-6.4971006E-1,2.1823347E-1,1.0745764E0,1.7076141E0,-3.7135744E-1,1.931235E-1,1.1937217E0,-1.3203109E-2,-4.165313E-1,-7.478946E-1,7.125848E-1,-3.4098792E-1,-2.156075E-1,5.484287E-1,-3.981839E-1,-5.2375007E-1,3.3687824E-1,-2.683981E-1,4.0936813E-2,1.0636012E-2,-3.991442E-2,-3.7042613E-3,3.4488555E-2,1.102645E0,1.726807E-1,-2.6157528E-1,8.8770986E-1,-4.0062618E-2,5.9393865E-1,6.238102E-1,5.1805484E-3,-3.600397E-2,-4.261179E-2,-9.589986E-3,9.9154385E-3,3.5722457E-2,3.8925026E-2,1.5938027E-2,-3.2060523E-2,4.4237156E-3,-3.1905077E-4,3.965605E-2,1.9861095E-2,4.1657407E-2,-2.6246214E-2,7.2988034E-3,3.330634E-2,-1.718435E-2,3.6961164E-2,1.2144127E-2,-3.2488253E-2,1.51309995E-2,-4.392606E-2,-1.8998746E-2,-2.9098231E-2,6.352508E-3,-1.5148838E-2,2.3719693E-2,-4.2394347E-2,-2.080139E-3,2.4139674E-2,-2.6995542E-2,-5.080249E-3,-4.0203787E-2,3.5973735E-2,3.143608E-3,-3.643887E-2,-4.4939097E-2,7.886396E-3,-3.2419685E-2],"split_indices":[10,11,9,14,11,9,10,13,13,10,3,0,10,13,9,20,10,4,0,12,14,3,12,10,6,9,11,10,14,4,15,13,0,4,11,13,11,13,11,3,12,14,14,0,0,0,0,14,14,12,3,10,0,10,10,0,0,0,0,0,0,0,0,0,0,0,0,0,0,0,0,0,0,0,0,0,0,0,0,0,0,0,0,0,0,0,0,0,0,0,0,0,0,0,0],"split_type":[0,0,0,0,0,0,0,0,0,0,0,0,0,0,0,0,0,0,0,0,0,0,0,0,0,0,0,0,0,0,0,0,0,0,0,0,0,0,0,0,0,0,0,0,0,0,0,0,0,0,0,0,0,0,0,0,0,0,0,0,0,0,0,0,0,0,0,0,0,0,0,0,0,0,0,0,0,0,0,0,0,0,0,0,0,0,0,0,0,0,0,0,0,0,0],"sum_hessian":[5.646662E3,3.827159E3,1.8195033E3,9.520229E2,2.875136E3,2.5962753E2,1.5598757E3,7.4637006E2,2.056528E2,2.706575E3,1.6856114E2,1.9344583E2,6.6181694E1,3.24117E2,1.2357587E3,7.1757697E2,2.8793095E1,1.4430579E2,6.1347008E1,2.1994346E3,5.0714032E2,6.9515884E1,9.904525E1,3.8712994E1,2.7468702E1,1.973843E2,1.2673271E2,6.709022E1,1.1686685E3,4.33654E1,6.742116E2,2.2857246E1,5.9358497E0,4.4178825E1,1.0012696E2,5.3206885E2,1.6673657E3,1.8926881E2,3.1787152E2,2.1661976E1,4.785391E1,8.759999E1,1.1445265E1,3.1842463E1,6.870532E0,2.2512997E1,4.955705E0,1.9440945E1,1.7794334E2,9.971214E1,2.702057E1,2.3970367E1,4.311985E1,1.1145851E3,5.408339E1,1.38395E1,2.9525898E1,6.649031E2,9.3085375E0,9.316053E0,1.3541192E1,2.9098717E1,1.5080109E1,4.957843E1,5.054853E1,2.9227713E2,2.3979169E2,2.2505426E2,1.4423114E3,1.2218475E2,6.708405E1,2.4673616E2,7.113537E1,1.603178E1,5.6301956E0,2.1669031E1,2.6184877E1,7.840052E1,9.199469E0,4.873833E0,6.571431E0,7.5462856E0,1.1894658E1,1.6762994E2,1.0313408E1,9.04158E1,9.296342E0,7.3255897E0,1.969498E1,1.4570111E1,9.400256E0,1.3849832E2,9.760868E2,1.0484933E1,4.3598457E1],"tree_param":{"num_deleted":"0","num_feature":"32","num_nodes":"95","size_leaf_vector":"1"}},{"base_weights":[8.365889E-6,-1.1518695E0,1.205254E0,-1.238146E0,-3.827156E-1,3.931239E-1,4.5588534E-2,-4.564442E-2,-9.7386724E-1,-1.1938229E0,8.989126E-1,-9.626983E-1,1.1896765E0,-1.1876717E0,9.6007574E-1,-1.2949904E0,-3.5250232E-1,3.3260143E-1,1.2247688E0,-4.670624E-2,-2.23134E-1,4.672395E-1,4.6246354E-2,-1.5901597E-2,-1.2130231E0,9.637604E-3,4.206889E-2,-4.8141204E-2,-7.300998E-1,-3.6855645E-2,3.3534892E-2,-8.510742E-1,1.0908681E0,1.53498305E-2,4.6368755E-2,-9.3640995E-1,3.1222118E-2,-1.9676112E-2,3.6948815E-2,-4.449347E-2,-1.804494E-2,-3.1897895E-2,-1.1085667E-2,-4.1158397E-2,-7.7243857E-3,1.3749513E-2,4.4155408E-2,-4.0194474E-2,-1.5084032E-2],"categories":[],"categories_nodes":[],"categories_segments":[],"categories_sizes":[],"default_left":[0,0,0,0,0,0,0,0,0,0,0,